V3001 -0.847895920 -0.692430675 -0.053777341 0.729799211 0.352125138 0.661232471 -0.282037884 0.740180016 1.285598636 -0.493030101 0.469459891 0.361245513 0.512257516 0.213546589 0.734251797 -0.767579138 0.125484020 0.031964257 -0.467267364 -0.115316421 0.372640103 0.836571276 -1.025769353 0.686002970 -0.360128373 -0.374024302 0.706251025 -0.828358531 0.855551422 -0.143963546 0.929170132 -0.260234833 -0.543818414 -0.716373384 -1.105375886 -0.662688315 0.619316936 -0.156405255 -0.672555506 -0.099025741 0.325570941 -0.983376384 0.691750050 0.285757601 0.354228675 -0.714501321 0.387475967 -0.763671100 -0.544123054 0.781870484 -0.332722127 -1.185808778 0.446649194 1.074550152 -0.038699485 -0.507609665 0.857619345 -0.428428173 0.197197601 -0.530830562
V053 0.143027812 -0.834595740 -0.095840022 0.136683881 -0.169625476 -0.610014856 -0.052841552 1.072178245 0.692843258 -0.491585523 0.559165180 -0.193270311 0.569632173 0.087251045 0.396086693 -0.170495048 -0.385932952 0.270717442 -0.503250241 -0.864244044 0.576592326 0.824764788 -1.354390979 0.409707814 0.053441826 0.094607323 -0.148427069 -1.168855786 1.418101788 -0.109837070 0.576375902 0.284548998 0.362315446 -0.587743223 -0.528137565 -0.364051461 1.021003008 -0.019538278 -0.202045977 0.145578489 0.618542016 -0.642253160 0.735684872 0.182353631 1.479634762 -0.635909379 0.316878021 -0.803681552 -0.931012690 0.608731627 -0.865993261 -0.670156300 1.254770994 0.110207602 -0.095765993 -0.623078585 0.670987904 0.609824002 -0.112934269 -1.016904354
V290 -0.510167062 -0.446970254 -0.072819456 -0.056991410 0.331271082 -0.309920609 -0.308581531 0.976550400 1.272609949 -0.667944133 0.739347279 -0.377725363 0.675683200 -0.676109612 -0.393074930 -0.394300848 0.472840279 0.447555780 -0.518491805 -0.064390250 0.843198299 0.845834374 -0.870056868 0.354476810 -0.121136904 0.014239665 -0.251968026 -0.687168479 1.620363951 0.421601146 0.630560756 0.126111850 -0.085331567 -1.096174359 -1.232039571 -0.253847420 0.609054863 -0.026666885 -0.592215598 -0.855504394 0.175741598 -0.248343661 0.960545003 0.510046542 0.720423222 -0.947586358 -0.061586156 -0.672618985 -0.123164713 1.213039398 -1.171623588 -0.368083358 0.785095930 -0.158254504 0.169371784 -0.942948997 0.631305218 -0.171245456 0.008211456 -0.079896189
0389 -0.009809809 -0.263008833 0.270876735 -0.079222172 0.482623577 -0.142358065 -0.163165405 0.358071864 0.819807708 -0.093686581 0.002061656 0.527266562 -0.049749315 -0.287168473 -0.576115131 -0.333970398 -0.104034007 -0.084809549 0.050580788 -1.057829499 -0.145123154 -0.197222874 0.020557610 0.355974883 -0.408878237 -0.173440859 0.580311120 -0.147100896 -0.123548269 -0.209737539 0.769122481 0.198326737 -0.015696427 -0.371496856 0.230130240 0.275189370 0.351951867 -0.564720392 0.103602871 0.165566161 0.116201997 -0.202700377 -0.124137536 0.847653210 0.556947947 -0.085396320 -0.489700705 -0.419489533 -0.284899741 -0.036150552 -0.127184823 -0.308554113 0.079709157 0.157913968 -0.160031930 0.311217308 -0.471791834 0.040805880 0.557716966 0.084332503
78559 -0.369851768 -0.236666292 -0.042502947 -0.149923667 0.743656218 -0.018251181 0.122500293 -0.060357522 0.188479066 0.101172291 -0.300452828 -0.484357059 0.545188367 -0.357354790 -0.044214059 -0.302133381 -0.071294285 -0.254041463 -0.248560861 -0.486285299 -0.155043229 -0.110634848 0.023422381 0.804855466 -0.573483646 -0.146242201 -0.087479800 0.320142329 -0.371930152 -0.192347407 0.070125535 0.567615628 0.079870634 -0.421146423 0.254272223 0.495446086 0.631097615 0.132727578 -0.686953783 -0.137478173 0.186109751 -0.250207126 0.096047051 0.343683660 0.072226495 -0.118555941 -0.514385819 -0.136172831 -0.555003881 0.659748793 -0.236480817 -0.096748002 -0.417743713 0.262305290 0.034928959 0.265226215 -0.391355723 0.161855116 0.698823154 -0.378558189
5849 -0.264928102 -0.184524372 0.267517954 -0.067633525 0.464436561 0.264658481 -0.203240052 0.128045455 0.465622276 -0.041025732 -0.030269848 0.040915925 0.201060563 0.126463994 -0.098322563 -0.329339534 0.207856476 -0.216171890 -0.188467696 -0.395549417 -0.352143854 -0.144187748 -0.177061021 0.650629461 -0.394366443 -0.084357269 -0.136797905 -0.191978350 -0.274318486 -0.384897143 0.193838388 0.576283932 0.078516640 -0.281006634 -0.027948139 0.168298081 0.064132139 -0.230869919 0.126322135 -0.153041661 0.313652456 -0.357439071 0.073239475 0.312705308 0.360317230 0.224434331 -0.095301464 -0.075014636 -0.496673048 0.428474337 -0.366508007 0.106352039 -0.436564535 -0.049621299 0.011816693 0.205063507 -0.256845862 -0.323466212 0.399996549 -0.205235407
4275 0.190049589 0.452484757 -0.166840851 -0.069397636 0.135342196 0.146296948 -0.336927742 -0.213703111 0.762021780 -0.212949023 0.034635097 -0.170845315 0.053120833 -0.601343453 0.192722768 -0.032758053 0.140103325 -0.146528244 -0.129989892 -0.451676995 -0.284773648 -0.016741432 0.063944906 0.602242053 -0.278260648 0.129355118 0.029562492 -0.213066354 -0.125338316 0.153347582 0.419089466 0.304105490 -0.285200775 -0.641083479 0.189167961 0.040177278 0.179586813 0.344523311 -0.084289357 -0.684244096 0.013740533 -0.543443918 -0.211970970 0.018669292 0.532868445 0.102760531 -0.159034714 0.276313573 -0.116406187 -0.100136302 -0.698482752 -0.086136594 -0.300679088 0.081559353 0.292175263 0.422557443 -0.430993885 0.132557616 0.540475190 -0.177340388
41071 0.330207288 -0.149276882 -0.097281210 0.201463997 0.531791925 -0.126621425 0.042523079 0.157705337 1.083928466 0.158891663 -0.082447477 -0.037211955 0.285008013 -0.183026850 0.089641228 -0.216028467 -0.018930776 -0.628353834 -0.165091559 -0.854107320 -0.418899387 -0.701896727 -0.263315469 0.223809183 -0.292768598 0.179635733 -0.702359259 -0.270336241 -0.063071355 -0.382159173 0.301685333 0.153965607 -0.001058689 -0.416156858 -0.002000340 0.014948743 0.117924601 -0.079874262 -0.135112822 -0.050451651 0.090396322 -0.500379920 0.197169945 -0.007237914 0.659814239 0.177401796 0.136260524 0.089555688 -0.525091290 0.029836830 -0.394305497 -0.162986547 -0.571116447 -0.184690818 0.366557032 0.219387770 -0.210062414 0.226738200 0.200115979 -0.085462950
4280 0.182511806 0.011127209 0.199883968 -0.154883474 0.212374300 0.407696515 -0.467615485 0.396887451 0.571467757 -0.191256240 0.036865331 -0.045084056 0.218562707 -0.214956135 -0.000889127 -0.163383067 0.155382887 -0.129040003 0.007050875 -0.501354754 -0.191969007 -0.191788048 -0.047374051 0.413929462 -0.200040758 -0.027734792 -0.178147614 -0.173810139 -0.245504335 0.105435163 0.196309745 0.484375030 -0.043016300 -0.166259125 0.161011770 0.001036540 -0.173249364 -0.013134336 -0.099685542 -0.276489139 0.154893324 -0.142655656 0.256564587 -0.119481951 0.324681967 0.102246374 0.098864183 -0.257049471 -0.227067158 0.105759829 -0.338354647 -0.106838293 -0.330690175 -0.137788206 -0.031828701 0.056353927 -0.159554839 0.072289206 0.487186939 -0.133557931
6826 0.075501390 -0.038662981 0.213204920 0.264146507 0.068774469 -0.243756190 -0.393961638 0.812212765 0.526220143 -0.005828110 -0.338385880 -0.625069320 0.136399314 0.105082147 0.087649353 -0.474243641 -0.325181574 -0.430374116 -0.134481937 -0.869419515 -0.400007486 0.344098061 -0.233653292 0.530948281 -0.544674695 -0.256827831 -0.041803729 -0.094607517 -0.215903178 -0.066500023 0.829545796 0.601428330 -0.474102616 -0.356479406 -0.242270231 0.193636745 -0.389182448 -0.370813489 0.131396770 0.195043355 0.203100979 0.103557311 -0.009833083 -0.105680913 0.329785317 0.366059065 0.188222021 -0.114366837 -0.005075819 0.168401584 0.052850585 -0.216992587 0.070753448 0.064613789 -0.215196773 0.406426489 -0.030662809 -0.154300332 0.427778035 -0.352616280
4254 0.067249715 0.346684217 0.513464630 -0.401994377 0.382700771 0.032066826 -0.656501889 0.204900354 0.509885848 -0.019325184 -0.100008942 -0.107334904 -0.095993340 -0.358627498 -0.113308236 -0.247265249 0.292293251 -0.544988394 0.435433537 -0.667988002 -0.523247600 -0.185922846 -0.466440767 0.553229153 -0.126253679 -0.221300364 -0.625699520 -0.460586756 0.096770875 -0.176359653 0.347171426 0.538264871 -0.076108865 -0.294295341 0.168921426 -0.064109318 0.183331951 -0.280246407 -0.156942055 -0.174567431 -0.062168516 -0.128202647 -0.098582849 0.014028751 0.131329671 0.087017871 0.207440570 0.112172812 -0.429291338 -0.062251598 -0.589004338 0.124661885 -0.335796654 0.195834428 -0.097952157 0.028063880 0.374427050 -0.166571036 0.254146844 0.000635307
2639 -0.337122291 -0.167196661 0.102933154 -0.437610447 0.338760942 0.259472400 -0.355419666 0.126517028 0.148762718 -0.204955786 -0.123575822 -0.040970918 0.385370106 -0.336133242 -0.127823383 -0.330275923 -0.163137928 -0.487094402 -0.234064445 -0.254217803 -0.314184159 0.534827173 0.208342552 0.272243798 -0.020791391 -0.173394397 -0.051704675 -0.407005966 -0.428848475 0.038095869 0.265877157 0.240722433 0.266811937 -0.603772998 -0.017387072 0.155904025 0.350281805 -0.242430583 0.528843462 0.061326582 0.368845075 -0.340218782 0.190189525 0.374716669 0.521353841 0.410016477 -0.258337975 0.114077300 -0.223222822 0.101278573 -0.029522022 -0.100561015 -0.486498773 -0.224817097 0.008932249 0.101902597 0.217825577 -0.376449585 0.531194031 -0.043464873
042 0.140943259 -1.007758617 -0.005946833 0.133586735 0.043464709 0.181821510 -0.425191909 0.221523792 -0.055643976 0.511977851 -0.180010170 -0.346791863 -0.052154563 0.086759195 -0.010413201 -0.480144143 0.217151374 0.135115564 0.535859823 -0.382883251 -0.331863016 0.385239184 -0.452923656 0.512759149 0.703978658 0.059863206 -0.188973486 -0.237018421 -0.433965027 -0.987254500 0.539111018 0.669289529 0.879976451 -1.106688261 0.509049416 0.147595823 0.487447798 -0.105868846 -0.169140190 -0.168908685 -0.180354685 -0.551479340 0.049369663 0.607848167 0.272775382 -0.369622529 -0.407367021 -0.960568368 -0.349681109 -0.196238622 -0.092607141 0.164818808 -1.286913395 0.043356027 0.151249990 -0.351966023 -0.120087080 -0.393723637 0.305427730 -0.552596986
1363 -0.207781896 -1.037886381 -0.100300126 0.457624018 0.644067764 0.155285716 -1.268922329 0.700366497 0.836339653 0.050147869 0.294359475 0.061476864 0.379938364 0.726214826 -1.112639785 -1.124926686 -0.150730148 0.546442449 0.406740308 -1.372049451 -0.274572015 0.313822299 -0.385425866 0.776140273 0.502898097 0.420438498 0.317833394 0.066835418 -0.345861197 -0.371754289 -0.078839771 0.736282706 0.509777963 -0.490277559 0.264449060 0.445766062 0.529688537 -0.271006972 -0.171011537 -0.443490624 -0.406934619 -0.102115050 0.092390597 0.722324014 0.633517563 -0.274923563 -0.629494965 0.099152319 -0.199298471 0.356599033 0.333962560 0.900534749 -1.402130961 0.143900439 0.153628245 0.500316203 0.094783388 -0.298384249 -0.167449102 0.113300897
7994 -0.381088406 0.035258289 -0.067330964 -0.189289406 0.736813962 0.394055754 -0.433450580 0.398626089 0.119510792 0.118071675 0.055410057 0.362134308 0.247989640 -0.019320704 -0.237239033 -0.050678033 -0.057424717 -0.557585418 0.154504165 -0.562719703 -0.593706071 0.620274305 -0.004194662 0.345317751 0.476916730 -0.076537155 -0.413384378 -0.452317446 -0.530411720 0.261089504 0.016747536 0.272061169 0.130261272 -0.592333674 0.060945410 0.347599179 0.495719314 -0.170757666 0.324459940 -0.317730010 0.216129318 -0.209319472 0.204155326 0.692341626 0.407081872 0.039751630 -0.240205303 0.253633171 -0.053249404 -0.017273745 -0.441693604 -0.372312754 -0.240934744 0.192613646 -0.042952824 0.081483535 0.278169125 -0.488618523 0.648827434 -0.310730278
2763 -0.405921370 0.122139782 -0.017038593 -0.303066164 0.222360834 0.085127801 -0.607644737 0.227362975 0.178840265 -0.212052286 -0.016997529 -0.191481769 0.458968252 -0.008274958 0.125888348 -0.257088900 -0.106380507 -0.360238463 -0.169246048 -0.138514131 -0.471572310 0.107568957 0.189850152 0.400504619 -0.080484390 -0.290408701 -0.030194804 -0.519191086 -0.339824080 0.124806032 0.271166921 0.411907405 0.054515205 -0.370023996 0.005591217 0.303025663 0.028167533 0.092199832 0.390818149 -0.040710099 0.155500352 -0.225933433 -0.030789729 0.245880187 0.693603098 0.234631419 0.088998720 0.043376286 -0.390170455 0.112362996 -0.424944878 0.139392927 -0.242973432 -0.011060013 -0.082184263 0.098572679 -0.101225182 -0.454123378 0.489408612 0.267171323
7907 -0.024078947 -0.409883261 0.249204814 -0.309745878 0.199307218 -0.066387072 0.006816769 0.172962680 0.143036798 0.064678662 -0.183346316 0.375618875 0.317280322 -0.618317962 0.071102634 0.095146492 0.093734905 0.038384669 0.269802958 -0.884772599 -0.482459605 0.326073855 0.399651408 0.078867786 -0.281042308 -0.105060600 0.149679109 -0.562990367 -0.123755977 0.064181507 0.072553053 0.332576662 0.183491215 -0.722725391 -0.136814475 -0.356140435 -0.117438339 -0.313500941 0.260986239 -0.105851054 0.263361037 -0.040474523 -0.008334892 -0.057274967 0.984756410 -0.129682183 -0.089528240 -0.503957093 -0.591772676 0.477872908 0.092276834 -0.223453909 -0.277772605 -0.568411112 0.127372041 0.427988946 0.025130013 -0.404755563 0.779729605 0.200472772
5715 0.573309302 -0.071170911 -0.116502337 0.282265693 0.221990421 -0.087340258 -0.453903615 0.115758158 -0.107308246 -0.088819921 -0.615371168 0.122375131 0.440966964 0.083638221 0.009103784 -0.303951293 -0.071601421 -0.246645987 0.343368143 -0.470884144 0.139416710 0.165215671 0.190048054 0.102971479 -0.723082602 -0.393344730 -0.244077906 -0.429226607 -0.286904246 0.357108444 -0.177167222 0.981313586 0.828003824 -0.866945505 0.221790135 -0.165502474 0.361503690 0.055611189 -0.070198357 -0.066090673 -0.031428318 -0.578298151 -0.313412100 0.339000136 -0.094715908 0.584542871 -0.311004013 -0.728760064 -0.048925690 0.124883138 -0.531030715 -0.216549054 -0.158117861 0.085504681 -0.462498009 -0.012757015 0.501912296 0.232556880 0.518673122 -0.192204982
04111 -0.019288452 -0.261705190 0.297001392 -0.202608198 -0.178217113 -0.248410597 -0.407844663 0.761318147 0.367809981 0.394303024 0.333757013 -0.168501869 -0.126439378 -0.371243268 -0.137638405 -0.319183141 -0.419716746 0.056701977 0.392094523 -0.037362959 0.148169518 0.539980888 0.144315541 -0.104716823 -0.295271099 -0.154020384 0.185650170 -0.951283038 -0.320055187 0.574966133 0.111396477 0.207195729 -0.026767422 -0.322491229 -0.678647459 -0.310315549 -0.645614803 0.216811657 -0.024525439 0.116894148 0.366048902 0.143807262 0.099973686 -0.027151924 0.625949025 0.225937843 0.006084810 0.036801655 -0.185040668 0.204095274 -0.195622995 -0.120116614 -0.105564244 -0.204658478 -0.185060114 0.505203187 0.179734647 -0.287216604 0.389751583 -0.047280986
V090 0.005017470 -0.115280189 0.375886142 0.288702607 -0.336782902 -0.018698230 0.012938913 0.347582221 0.894108891 0.502908051 0.501205206 0.153325230 0.571428418 -0.222842366 -0.025955673 -0.502269864 -0.178158700 0.171936378 0.406421781 -0.432016909 -0.051432155 0.384276092 0.378630757 -0.192092970 0.123578049 0.024422679 0.049388055 -0.419483125 -0.545932889 0.427531898 0.337976545 0.598846078 -0.472374201 -0.127073169 0.055637244 -0.357972056 -0.194985762 0.223369673 -0.180861875 0.261037797 0.216789708 0.011585762 0.433971018 0.345198393 0.704357564 0.288786173 -0.449771851 -0.085348330 0.133121103 0.070792869 -0.520250797 -0.305758834 0.189739898 -0.246383443 0.282648981 0.251386166 0.248736843 -0.026719185 0.437436342 0.028723653
E9317 0.398370147 -0.647549093 0.432554424 0.153288797 -0.576116025 -0.529605269 -0.444075108 -0.106526852 0.293403536 0.387842268 0.664845526 -0.299124837 0.533489108 0.296428055 -0.751810014 0.413265616 0.493180603 0.344259769 1.154996991 -0.377560049 0.021138616 0.557772458 -0.131229788 0.141355455 -0.049226630 -0.169622943 0.232565388 -1.203419328 -0.147593856 -0.233290330 -0.110118411 0.160951808 0.716438413 0.409415781 -0.377526611 0.074804857 0.462203324 0.317456871 -0.726106703 0.018823797 -0.068041131 -0.009748862 -0.220863357 0.666086078 0.566057801 0.080868512 0.155161515 -0.307764888 -0.482963890 -0.111840539 -0.472379297 0.165701717 -0.847037554 0.696065247 0.692010939 -0.444848299 0.842580855 0.269286066 -0.228724346 -0.699771166
V3000 -0.844092190 -0.582593083 0.222927943 0.728522182 0.262585640 0.371112734 -0.290272683 0.596049786 1.192106724 -0.866486847 0.863833010 0.128227547 0.987469375 0.260933489 0.502184689 -0.399438560 0.040481992 -0.629699349 -0.465708554 -0.671952188 0.492167413 0.677311718 -1.063547134 0.902426422 -0.108888790 -0.282155067 0.799762011 -0.805660367 1.147417307 -0.623800457 0.790451944 -0.195680946 -0.539281547 -0.265402764 -0.857568860 -0.994738817 0.888199508 -0.448094696 -0.737431467 -0.200721025 0.286729693 -1.120405316 0.682178378 0.304191262 0.616822660 -0.488201410 -0.001761713 -0.451385260 -0.088704370 1.202489257 -0.147163227 -0.991817415 0.210677370 0.669459224 0.177602440 -0.602477610 0.875696480 -0.244644076 0.069473051 -0.610404253
40391 0.187762514 -0.240456268 0.138036802 -0.030260131 0.374680400 0.483035028 -0.725647986 0.561912000 0.416028529 0.669631779 -0.498514742 -0.173345640 0.042722538 -0.288372666 -0.161791250 -0.203469947 0.206428543 -0.052256986 -0.557676852 -0.934928894 -0.658365428 -0.309268057 -0.022059532 0.100665025 -0.254812270 0.020790551 -0.586494088 -0.556087613 -0.416057050 -0.014266293 0.552966952 0.773607910 -0.164506882 -0.090623043 -0.146465376 -0.188953996 0.373844057 0.503912210 -0.101172686 -0.180774540 0.018800747 0.021218881 0.144995376 0.469003558 -0.123368606 0.533117592 -0.365827918 -0.230372906 -0.459180146 0.143928260 -0.101785339 -0.227421135 -0.060707159 -0.290336788 0.632404983 0.110242084 0.220306307 -0.370548517 0.794498026 -0.241055086
4440 0.389676064 -0.066197708 0.574408054 -0.683398366 0.417527825 0.369895846 0.046592467 -0.188205749 0.670280159 0.513528287 0.060913153 -0.372302741 0.709936678 0.173479736 0.080233276 -0.287384391 -0.458750129 -0.583396375 0.356363833 -0.535211921 -0.602231979 -0.206177279 0.250589699 0.380844712 -0.837474644 -0.061115198 -0.147140995 -0.028107716 -0.734754086 0.310098946 1.201996684 -0.245990098 -0.473190129 -1.036742091 -0.187333614 -0.038414657 0.756507277 -0.236566842 -0.138521165 -0.721205711 0.624127805 -0.504575729 0.653975427 -0.022046423 0.034754094 -0.680859864 0.008984322 0.804415107 -0.620256364 -0.332781434 -0.200306684 -0.906460881 -0.529960454 -0.300411850 -0.205906421 0.188115150 -0.240414917 0.900574386 0.989316761 -0.258831352
9972 -0.295394391 0.022857217 -0.125035986 -0.514147103 0.546792567 -0.043705288 -0.103060029 0.183369771 0.630967677 0.242048591 -0.474958479 -0.114150293 0.559894681 -0.298774004 0.132745072 0.363220930 -0.253785878 -0.475599319 -0.198225230 -0.550959706 -0.722126901 -0.086077653 0.106638558 0.014681967 -0.191807479 -0.400681883 -0.448574901 -0.165270418 -0.015036215 0.052649342 0.526361406 0.386604249 -0.322395355 -1.007237315 0.081975028 -0.325192720 0.659958959 0.246832728 0.035203472 -0.644538105 1.031688929 0.075900428 0.245118931 -0.663316250 -0.243192255 -0.208941028 0.602054656 -0.199812964 -0.834794223 0.121117488 0.486112118 -0.006307354 -0.710546136 -0.623684764 -0.114335567 -0.115615264 0.285193354 0.139834717 0.998376727 -0.026350733
2766 0.001212694 0.024547387 0.103104599 -0.106554978 0.352704912 0.397957623 0.124474697 0.193842739 0.169344634 -0.261459857 0.217978060 -0.079374716 0.383092940 -0.136261195 -0.428023279 -0.557983875 -0.042299870 -0.101829588 -0.161230192 0.105137967 -0.117045105 -0.034842815 0.500439405 0.254809022 -0.556312978 -0.040254679 0.254424036 -0.418327481 -0.385764778 0.382337749 0.441093236 -0.104044393 0.253647536 -0.642095923 0.075038552 0.069996141 0.132808253 0.373410344 -0.162096888 -0.012213199 -0.082454413 0.060072187 0.026493924 -0.078294337 0.088966489 0.166235775 -0.083432496 -0.318113834 -0.355592459 0.167924196 -0.327983588 0.412733942 -0.027459547 0.115000136 0.289779007 0.146152541 0.201092407 -0.293403387 0.386813998 -0.393819571
2767 0.204439178 -0.350431025 0.190476418 -0.300125033 0.496467799 0.196320906 -0.452558488 0.238808200 0.490403056 -0.323177338 0.140613079 -0.058450993 0.395954341 0.028303383 -0.326320201 0.240102977 0.124198511 0.174504563 0.224112719 -0.105409786 -0.308453947 -0.085925736 0.212374493 0.479736328 -0.467006087 -0.154541418 0.038427457 -0.164636314 -0.240510687 0.128493607 0.278644115 0.831390381 0.239433423 -0.343398541 -0.007916582 0.062826291 0.031571954 0.432983071 -0.144764543 -0.167832628 -0.007809381 -0.182401270 0.094296664 0.045562577 0.171624526 0.289784789 -0.152428731 -0.101894684 0.037663318 0.107390270 -0.051195987 -0.112263381 0.003528420 0.210789606 0.069323443 0.061673678 0.236586899 0.083447635 0.376375645 -0.416615993
2859 0.042432752 -0.182523489 0.260951519 -0.163342178 0.259367555 0.036741074 -0.269016355 -0.030873409 0.396200001 -0.184750304 0.106787682 0.271447986 0.076525666 0.031511672 -0.163813040 -0.425211400 0.087928928 -0.144653365 0.168679148 -0.104372390 0.085721910 0.010994295 -0.060774684 0.185456917 -0.083916932 -0.013313564 0.175063342 -0.124848515 -0.184222773 0.326196790 0.008484260 0.136261582 0.088442326 -0.253673285 0.063591860 -0.364177585 0.065764338 0.426271021 -0.317232102 -0.130938977 0.207720861 -0.057394523 -0.011559303 -0.092338532 0.442318529 0.289698392 0.141878113 -0.060945217 -0.140274599 -0.002855428 -0.386720628 0.192922309 -0.089860260 0.117747724 -0.037778895 -0.464359224 0.011441476 0.171485022 0.516122103 -0.351065665
2753 -0.087002538 -0.176706925 0.312555075 -0.653686166 0.293623596 0.057520360 -0.050206296 0.169540480 -0.095455684 -0.506805122 0.308612764 -0.174820855 0.340020031 0.256630987 -0.457193613 -0.421736389 0.011861760 -0.013094472 0.414530009 0.108972237 -0.290586680 -0.301514477 0.194205791 0.195795521 -0.363824159 -0.082642987 0.034195174 -0.262745142 0.026779564 0.254554421 0.377286762 0.459073931 0.375349432 -0.291994065 -0.413923502 -0.268482119 0.302147716 0.520931959 -0.417446226 0.094797187 0.097972728 -0.012725755 -0.494547457 0.083941996 0.943867385 0.604760349 0.137254283 0.114763387 0.071762398 -0.110565223 -0.192933470 -0.191682518 -0.297008634 0.484997720 0.667750239 -0.502636671 0.472870559 0.207300037 0.218959957 -0.915480673
V1582 0.427490354 -0.283839434 0.323028058 0.172046080 0.501893163 -0.033463266 -0.528103113 0.213096634 0.316017658 -0.120630659 0.186635256 0.167853326 0.387775093 0.071317300 -0.011345144 -0.064719446 -0.071317784 0.191566080 0.007639108 -0.149501637 0.176855758 0.046076689 -0.465770125 -0.092531458 0.202439860 -0.287231117 0.209567964 -0.046687413 0.111774005 0.278268546 0.312520444 0.145782962 0.363212705 -0.115396008 0.468790650 -0.133906454 -0.027025957 0.178552002 -0.859944344 0.012652728 0.740845144 -0.189006388 -0.009900935 0.273930788 0.404920518 0.105592795 0.290726990 0.339445144 -0.128953516 -0.015028782 -0.425415039 0.402422845 -0.146001890 -0.126535997 -0.241496265 -0.106993720 -0.231172606 0.075645186 0.327190578 -0.520154178
7706 -0.182059482 -0.515511692 0.081700489 0.834843516 -0.134713501 0.020779636 -0.390418500 0.996616483 0.616619229 -0.756406903 1.212586164 -0.490510464 0.475539953 -0.068461031 0.175896570 -0.112860493 0.665921569 -0.413403928 -0.847256362 -0.578822732 0.274354845 0.377916723 -0.614336431 0.273330748 0.192674145 -0.414259106 -0.033790227 -0.905184686 1.560660362 -0.122662634 1.396904349 0.640712559 -0.140004784 -0.201478243 -1.091154814 -0.443791896 0.653821588 -0.253924757 -0.070001699 -0.147182509 0.514759243 -0.120594971 1.304753304 0.354084432 0.996102571 -0.366520107 -0.291368991 -0.430024087 -0.298805356 0.796671808 -0.822772443 0.198198676 0.597168624 0.020306621 0.764597356 -0.889091372 0.768651962 -0.469097823 0.352312207 -0.949239075
7746 -0.553702712 -0.988006711 0.191898197 -0.074204840 -0.576785803 0.335895836 -0.404204756 0.702115536 1.485081553 -1.493953466 0.522975743 -0.145554006 1.188587666 0.133476451 0.299229950 -0.658366561 -0.108877040 -0.406519324 -0.250406832 -0.916844904 0.217011958 0.600278258 -0.972884774 0.013112856 -0.485292107 0.124153458 -0.055042740 -0.686666906 1.116623640 -0.755972326 0.846714795 0.248283267 -0.290041357 -0.225585327 -0.320281386 -0.338381141 0.997810304 0.163343266 -0.338313043 -0.445062578 -0.008686301 -0.348510951 1.565112948 0.487621695 1.086444855 -0.041624475 -0.604777753 -0.876480341 0.150486723 0.935695946 -0.104535237 0.164363906 1.204332590 0.333793461 -0.428986043 -0.788142800 0.357747644 -0.187934130 -0.359313220 -0.342218757
V502 -0.811821818 -0.259624720 -0.648956418 0.620856643 -0.248800129 0.162218690 -0.365221351 0.976706564 1.541656494 -0.814705670 0.614542067 -0.140090302 0.956260860 -0.147314504 0.241060764 -0.247828186 -0.238109231 0.201878503 -0.046092905 -0.881623209 0.160105959 0.718702972 -0.982887506 0.052285157 -0.186280698 -0.414341301 0.636201322 -0.770539105 1.310540318 -0.018275278 1.139300942 -0.025198990 0.290725112 -0.350968689 -0.151139632 -1.164781690 0.940894783 0.131923467 -0.301001579 -0.937030375 0.471781492 -0.030496666 0.431371242 0.664471209 0.874189258 -0.725398540 0.065893374 -0.955811024 -0.507392287 0.485269547 -0.718000352 -0.574926257 1.312772751 -0.708654225 0.803481519 -0.495433033 0.417538673 0.498543918 0.069148801 -0.330033213
431 -0.541251779 -0.652589262 0.032086570 -0.135596633 0.182329550 0.503255606 -0.531521618 -0.257189244 0.314133763 0.329460025 0.055151366 -0.125601739 0.701003015 -0.282910019 0.135046706 -0.269195944 0.341556102 0.388660222 0.105392113 -0.891520202 0.172481611 0.194603801 -0.532229781 0.400209337 -0.398467928 -0.322014868 0.041056599 0.012189120 -0.098505870 0.347334713 0.464111924 -0.226654366 -0.106373779 -0.611104786 0.318363190 0.329719871 0.255493701 -0.157986924 -0.120619453 -0.334689379 1.272637367 -0.090310939 0.007686737 -0.167367324 0.862597942 0.495317072 0.112457611 0.065945730 0.245407239 0.221606582 0.013522823 0.235703692 -1.178434014 0.578317046 0.116539903 0.528043926 0.552201986 0.655583203 0.225251868 0.870690584
5070 -0.354851276 -0.322242081 -0.283607036 -0.342023522 0.106474742 0.283511639 -0.439613044 0.104118079 0.492302179 0.328077853 -0.266747892 -0.002216566 0.059043288 -0.314038098 -0.103469200 -0.229598194 -0.017743109 -0.725984991 -0.421012700 -0.322455198 -0.144669637 0.148972303 -0.085597485 0.395289630 0.181708559 0.147050202 0.095204033 -0.078963809 -0.314315021 -0.141760349 0.343112499 0.522703588 0.026653141 -0.263068974 0.112633497 0.232545242 0.499097288 0.063861027 0.158795595 -0.041504178 0.130136937 -0.449848950 -0.085720621 0.289049089 0.843334734 -0.035733201 -0.157330066 0.081458569 -0.104329333 0.244633168 -0.502149701 0.100327723 -0.385540485 -0.079492174 -0.096325688 0.365144640 -0.164741501 -0.165555194 0.459495544 -0.093351737
2765 0.263463020 -0.245272040 0.185294777 -0.191887304 1.268486381 0.291361719 0.240122929 0.747581244 0.397972465 0.273526490 -0.305103123 -0.516202688 0.128541157 -0.216302708 -0.329235405 -0.894254863 -0.444426954 -0.544078827 0.635239780 -0.434080273 -0.226321712 -0.177989230 -0.270997226 0.365914315 -0.039718945 0.289326578 0.629720271 0.532597423 -0.534789801 -0.159537882 0.229052842 -0.026045902 -0.177111983 -0.022501880 -0.047425941 0.184373289 0.508667350 0.373007387 0.241797328 -0.269033372 0.184812874 -0.701872230 -0.415530026 0.040583398 0.725102544 0.137727752 0.110912777 -0.385926664 -0.329100728 0.149244651 -0.593837380 -0.212249875 -0.156996429 -0.586562753 0.366219342 -0.327315241 0.306250602 -0.512931883 0.509735107 0.183390185
4019 -0.182967395 -0.014430405 0.246579975 0.150242701 0.389055252 0.101986058 -0.243263453 0.053479679 0.442099869 -0.102597445 0.021266254 0.028617730 0.061265431 -0.141538545 0.063328706 -0.348856926 -0.221811324 0.012654886 -0.364127755 -0.263054401 0.151305094 -0.040384244 0.031190831 -0.012946002 0.164420187 -0.057937566 -0.191065267 -0.065949149 -0.433053166 0.068345375 0.109232068 -0.019626528 0.057021011 -0.083355501 0.151540399 -0.267524332 -0.099993862 0.416564852 -0.320652753 -0.331619561 0.511158168 -0.139789999 -0.024378981 0.119790308 0.428323060 0.262179732 0.307384729 -0.082625009 -0.175107211 -0.068106882 -0.316235751 0.306578547 -0.083006904 -0.277568549 -0.122466855 -0.322895348 0.266705155 0.270394444 0.577176452 -0.069453672
7742 -0.549915969 -0.699955463 -0.107409917 0.154619038 -0.381242841 -0.261747599 -0.848546207 0.984896302 0.932554841 -0.566671014 -0.013578230 -0.483154863 1.038995624 -0.563176990 0.630113959 -0.280007660 0.260563463 -0.355175167 -0.833451092 -0.200627983 0.735318124 0.845778823 -0.667410374 -0.338249505 -0.594054461 0.378486633 0.112983607 -1.108271241 0.784608424 -0.079699360 1.372802377 -0.063605525 -0.146697581 -0.646706998 -0.361363798 0.091950849 0.613641739 -0.177221060 -0.245998114 -0.762766242 0.103417307 -0.263792843 0.737118661 0.829973102 1.044474244 -1.056966305 -0.541355073 -0.738773227 -0.940294802 0.780311942 -0.124085188 -0.033503857 0.450096935 0.565285325 -0.282513618 -0.399522603 0.862713993 -0.000160168 0.124631323 -0.770285726
76525 -0.698968232 -0.690871656 0.628234148 0.154516146 -0.611479282 0.654861987 -0.363009244 0.253567040 0.889072061 -0.689876914 0.566005230 -0.925255001 0.203385308 -0.225062013 0.348763943 -0.073897019 -0.516241610 0.263523817 0.371116579 -1.296178699 0.885795653 0.959642828 -0.218666553 -0.168852746 -1.464505076 0.612962604 0.182193980 -0.982614934 1.005773187 0.588461995 1.060468554 0.503370464 0.051730931 -0.567104161 -1.974339962 -0.609283805 0.324286550 0.211187512 0.384854823 -0.386058003 0.576786399 -0.461083055 0.429561585 0.911550403 0.976872802 -1.315602660 0.114044324 -0.429725528 -0.709740579 0.366909295 -1.125847936 0.066751815 0.499380112 0.513637424 -0.385851651 -0.501377463 0.996894002 -0.082666963 0.288202345 0.339025140
76515 -1.399653554 -0.836348951 -0.121876419 0.219959810 0.183452949 0.285740346 -0.539417624 0.799573720 0.514921308 0.137318313 0.421423703 -0.629745901 0.518889487 -0.941003501 0.255078286 -0.298639089 0.480060607 -0.652669728 -0.665830314 -1.004499078 0.261831343 0.867953241 -0.938542426 -0.715307057 -0.651085973 0.392266959 0.299344152 -1.912068963 0.436531514 0.394874662 1.032774329 1.305867910 0.204680622 -0.463435739 -1.236902356 -0.171555057 0.967804492 0.481205761 0.172712505 0.676199138 0.046093076 -0.313878655 0.023034751 1.123199463 0.252972811 -0.908370078 0.361782968 -0.565288067 0.041598830 0.194684640 -1.218817949 -0.340556383 0.851351202 0.325317979 -0.498452514 -1.106714249 0.856069386 0.564335585 0.459472507 0.385829657
1913 0.125040367 -0.516427100 -0.022521347 0.250552356 -0.076219179 0.403484553 -0.564228117 1.306760430 -0.224949047 0.087153390 -0.335416466 -0.466838807 0.274135739 0.683810949 -0.026769936 -0.396091938 -0.031004896 -0.902622938 -0.852549911 -1.035956025 0.024690857 0.420109093 -0.304018050 -0.139330193 -0.193356916 -0.922110975 0.628278315 0.417026460 0.222764641 -0.088450894 0.747927487 -0.457291305 0.781234741 -0.303291321 0.002918926 -0.701071858 1.345069647 -0.176938280 -0.110808432 -0.318809062 0.819252014 -0.823263884 -0.625159144 -0.243696734 0.281126618 1.188079476 0.178772345 0.049513534 0.798005521 -0.071679898 0.176714644 0.633070648 -1.357878804 -0.122603826 0.591045499 -0.722692251 0.388856530 0.571256340 0.550300777 0.488281637
1570 -0.081694178 0.192418188 -0.528072119 0.415199250 0.146449864 -0.580468714 0.150261447 0.437529057 0.537399352 -1.019548655 0.581041157 -0.797834039 0.140586078 0.599920392 -0.371634096 -0.067222580 0.320429564 -0.282019526 -0.163626254 -1.386844516 -0.084725119 -0.480560660 -0.287375987 0.243076369 -1.049367309 -0.161291152 -0.152994990 -0.359199107 -0.511310935 0.478352368 -0.318502992 -0.088385954 0.521099567 -0.643650174 -0.107601523 -0.005036338 0.801113665 -0.070844419 0.142044157 0.061921496 0.522245705 -0.690541685 0.252117783 0.157065883 0.198454350 0.252761692 -0.312352568 0.235598370 0.062619478 0.780036092 0.210501283 -0.004480180 -0.455946475 -0.427433759 -0.088135503 -0.367834300 -0.695084274 0.027918683 1.605973721 0.286681235
57410 0.460787773 -0.022940407 0.753806055 0.429789543 -0.345865399 0.321203232 0.065369874 -0.107005641 0.733160794 -0.188581407 -0.429477811 -0.488442928 0.387938231 0.108933784 -0.361685842 -0.330124646 -0.003382524 -0.438629180 0.058377136 -1.168552518 -0.249238610 0.002420371 0.756797254 0.393353492 -0.351795316 0.057390466 -0.326961458 -0.221540779 -0.632332623 0.420364738 0.318452656 -0.013648681 0.298663467 -0.306871921 -0.147236064 -0.194837511 0.725398958 -0.082508489 0.215626478 0.378172487 0.275215894 -0.506255627 -0.046704408 0.424149305 0.351746142 -0.298996747 -0.158524647 0.523367584 0.021469945 0.842804968 -0.327838033 0.262930244 0.187215805 -0.323859215 -0.279748529 -0.073952861 0.140295953 -0.170194253 0.812675953 -0.110533990
9971 0.461374044 -0.191617757 0.371949703 -0.401747406 0.753315389 0.472372621 -0.424633563 0.414190531 1.254449248 -0.200601116 -0.325034827 -0.130015984 0.121819325 -0.512785137 0.426886022 0.130208597 -0.283484131 -0.316839367 -0.444662571 -0.626152813 -0.113202401 -0.296383649 0.309630334 0.449883044 -0.149588227 0.262231082 0.320970923 -0.855857253 -0.342703611 0.190611795 0.297342509 -0.060368735 -0.547850192 -0.424917966 -0.021285143 0.180011600 0.578752339 -0.168198138 -0.308958858 -0.221122324 0.471262425 -0.442755520 -0.363237292 -0.315452099 -0.488046795 0.097909153 0.608961761 0.106509529 -0.103241473 0.512568235 -0.142477602 0.218524873 -0.160569757 -0.053405274 -0.227374047 0.188280404 0.229951277 0.212945893 0.422786355 0.060687955
99811 0.333470017 0.404295117 0.189690918 -0.070516035 0.682168961 0.169443756 -0.102810055 0.163933828 0.522900343 -0.111384965 -0.229040369 0.076299958 0.170823336 -0.705914974 0.462064773 -0.460912168 -0.133846670 -0.076391183 -0.430751890 -0.428936303 -0.201712757 -0.194397822 0.186547011 0.337569386 -0.640961051 -0.370033383 -0.162188753 -0.384839147 0.033903282 0.089027815 0.165333048 0.261700392 0.377926737 -0.902427197 0.061533958 0.243009895 0.391847551 0.104185492 0.057775360 -0.336513579 0.313149810 0.046554495 -0.024350438 0.184318021 -0.189158589 -0.140950099 0.254049063 0.259241611 -0.281006277 0.327469498 -0.093419194 0.055277266 -0.024111545 -0.385988921 -0.355171442 0.361080229 0.200608090 -0.119077116 0.723541558 -0.156440929
5680 0.561811447 0.192994624 0.390638828 0.370063245 -0.251967728 0.161167592 0.361316979 0.046772499 0.394146502 -0.197627217 -0.087652296 -0.537150383 0.540055037 0.151116267 -0.888950348 -0.425867200 -0.068020090 -0.224238873 -0.115012430 -0.446957082 0.207348436 -0.223332196 0.863070011 0.586586893 -0.161114350 -0.494221032 0.303194016 -0.210935444 -0.234947145 0.652731180 0.159493789 0.201015010 0.282851398 -0.347469628 -0.403013051 -0.327420086 0.539648533 0.536826491 -0.584162176 0.223774910 0.314819872 0.023067143 -0.032910921 0.379975945 0.239762068 -0.439777851 -0.311871886 0.684678674 -0.499281883 0.265140414 -0.051292401 0.235680193 -0.235404983 -0.389934301 -0.386107057 -0.124085449 0.415046424 -0.183185309 0.573628068 -0.355682760
55321 0.319851279 0.190418854 0.197475642 0.617214620 -0.296039104 0.106640875 0.293539882 0.455361605 0.754736245 0.099438928 -0.094272733 -0.335658133 0.801062822 0.356886476 -0.960932612 -0.060444687 -0.477043927 -0.341609150 0.033098616 -0.688472807 0.370050669 0.099024989 1.116703033 0.746366322 -0.119467385 -0.330437571 0.169367045 -0.327947229 -0.123601593 -0.123490632 0.099075928 0.206079945 0.245023444 -0.456016004 -0.324562013 -0.295183092 0.261662334 -0.030480612 -0.570845664 0.392508686 0.509333849 -0.111194707 -0.014689348 0.409716010 -0.321904868 -0.149419650 -0.074759856 0.546743274 -0.013811411 0.238036692 -0.030356718 0.065672189 -0.413700134 -0.517905056 -0.722908318 0.082378149 0.501560867 0.312010288 0.728783429 -0.409813702
E8782 0.563031733 0.198175028 0.553326547 -0.628481090 -0.081333354 0.054370079 -0.082986325 -0.057210751 0.700192392 0.043146182 -0.264576614 -0.263037682 0.277888745 -0.066034593 0.195584059 -0.085282780 0.231712982 -0.069138817 -0.192865133 -0.399420649 0.176855981 0.113240868 0.258259326 0.335877001 0.010446735 0.091230549 -0.090392359 -0.715482295 -0.200924441 1.030707717 0.464078426 0.026001096 0.348861992 -0.176038459 -0.225391582 -0.492586285 0.166111261 -0.122094937 -0.891131401 0.019432519 0.457423270 -0.013106151 0.190919295 0.056180462 -0.285162836 -0.113203481 0.321763635 0.462474763 -0.215154439 0.145616844 -0.321993262 0.447303921 -0.644862592 -0.371332854 -0.041557919 -0.168508321 0.283012897 -0.089795098 0.254814744 -0.483868212
41401 0.422035366 0.001210531 0.274139792 -0.422603309 0.401705801 0.151582971 -0.533459902 0.243357256 0.608486354 -0.305442303 0.141544178 -0.103053242 0.086252570 -0.243453532 -0.096596524 0.003002280 0.000879759 -0.165344954 -0.328090191 -0.483792335 -0.009531849 0.094068192 -0.244771034 0.271137804 -0.405190855 0.270870686 -0.418002248 -0.439047277 -0.405841142 0.189957291 0.011591049 0.087025821 -0.099303648 -0.235881105 0.235694781 -0.253696322 -0.110735789 0.060779691 -0.604971051 -0.233483672 0.184535816 -0.270785719 0.146603808 -0.089997463 0.210209548 -0.113787502 0.300308019 -0.230279371 -0.254322618 -0.241340697 -0.215998664 0.282659233 -0.335942090 -0.324963003 -0.183595419 -0.121851608 -0.091103107 0.343747646 0.335670650 -0.062507801
4111 0.907986760 -0.362279773 0.134180635 0.459247679 0.843208909 -0.158310056 -0.138767540 0.131619290 0.924489617 -0.101081647 -0.272279918 -0.607110381 0.687285006 -0.362132251 0.392390311 -0.043227281 0.080588810 -0.617388487 -0.135609478 -0.948188186 -0.008264312 -0.591732800 0.271632969 0.664188802 -0.220978543 0.213479608 -0.672130942 -0.649174452 -0.353802949 0.271084636 -0.098012410 -0.569829702 -0.116463691 -0.324736834 -0.499387234 -0.464139044 -0.211397842 -0.261246741 -0.948176622 -0.166693091 0.270593286 -0.409019202 0.060306180 -0.477214992 0.290206134 -0.012431791 0.659070134 0.178525597 -0.505127907 0.040167134 -0.094002821 0.090838760 -0.650500774 0.116182625 0.157253280 -0.186260521 0.415668190 0.496511936 -0.015058440 0.041250404
25000 0.307390243 0.070780471 0.343057305 -0.112810500 0.031526152 0.017522572 -0.332146704 0.208672151 0.373867959 -0.203829691 0.112650089 0.100233980 0.370311499 -0.074138209 0.016452834 -0.419749200 0.181712866 0.151757851 -0.255525023 -0.260430515 0.445029825 0.028091684 -0.143331885 0.427136272 0.109864347 -0.080424853 -0.176673219 -0.032928724 -0.210198805 0.216344237 0.339029431 0.132195219 0.025868731 -0.209375486 0.091618359 0.311754823 -0.130295858 0.208256200 -0.297754109 0.019739024 0.292366028 -0.417047769 -0.055996913 -0.348527998 0.320395470 0.187962964 0.200599268 -0.018542789 -0.315050572 -0.283548087 -0.185652927 0.175525516 -0.306159556 -0.208667248 -0.238703802 -0.061384354 0.075029328 0.050275560 0.723090351 -0.176756486
2720 0.208665073 0.008033817 -0.119616985 -0.022983596 0.356313199 0.201297656 -0.136043191 0.274106860 0.616173446 -0.409009039 0.020581765 0.092071377 0.168883368 -0.218258575 -0.086947493 -0.275883555 -0.006554703 -0.085701764 -0.092507102 -0.328304768 0.033213671 -0.088598527 -0.181936875 0.190605715 0.049400121 0.246829823 -0.071076579 -0.295731604 -0.050608769 0.007813591 0.314156204 -0.177491963 0.082320869 -0.208259061 0.301359922 -0.326706737 -0.220687106 0.408357054 -0.633339405 -0.223767728 0.382297456 -0.453605026 -0.057048872 -0.286727399 0.413845956 0.132631555 0.144729152 -0.206457600 0.232880428 -0.095558606 -0.174529552 0.254040092 -0.383406341 -0.480742365 -0.057812106 -0.277106464 0.071605355 0.204586118 0.463640779 0.132162973
V721 -0.965493858 -0.181232616 0.782077730 -0.121766821 0.390815496 -0.238601014 -1.137403965 0.954301178 0.682677269 -0.235933259 1.258701563 -0.280018628 0.262259007 0.222932503 0.631319821 -0.223765299 0.138078302 -0.055158161 -0.626271188 -0.690551400 0.986086726 0.623935819 -0.700225055 1.290874600 0.417934209 -0.022082468 0.751387954 -1.025751591 1.596284986 -0.419339687 1.586304665 0.509320199 -0.351241499 0.051460210 -0.235248223 -0.400531590 1.302156091 -0.362855226 -0.875461876 -0.867746949 0.403574437 0.034137391 0.403826624 0.826286554 0.958910942 -0.284951329 0.323494792 -0.603271902 -0.538407803 1.102377892 -0.769356132 0.247684404 1.624547601 0.528326273 0.191460118 -0.938325465 0.504611254 0.269165099 0.195992097 -0.303322345
4239 -0.155968010 0.195476055 0.721034765 0.100625306 0.761760592 -0.110852577 -0.153699607 0.354829758 0.555567563 -0.517786801 0.016666671 -0.446042478 0.158386305 -0.482466608 -0.142838761 0.201552063 0.357360780 -0.066009693 0.158029273 -0.062152077 -0.121508919 0.030257301 0.062202964 0.584210396 -0.280879766 0.345015138 -0.094928272 -0.886926293 -0.282149285 0.261419356 -0.205709919 0.181169108 -0.245317787 -0.718945324 0.383563757 -0.145017564 0.059023920 0.253964156 0.201707318 0.046843406 -0.019612251 0.271426052 0.499417871 0.360520691 0.271504700 -0.168449283 0.298578888 0.010686428 0.078330398 -0.233483240 -0.197539344 0.651853263 -0.502865255 0.137919024 0.370465457 0.061161000 0.029539773 -0.280463219 0.644715011 -0.013719165
5119 -0.172771394 -0.229160607 0.000793278 0.117401600 0.379998833 0.245103449 -0.217877030 0.253426194 0.446940273 -0.193572491 -0.251810998 0.035299763 0.288146585 -0.227813601 -0.005943483 -0.314797997 0.016563432 -0.507519126 -0.001729269 -0.376404554 -0.240344062 -0.104688652 0.227403700 0.453515202 0.025657594 -0.001664634 0.139507443 -0.755449951 -0.160002157 0.016173568 0.151198998 -0.055894554 0.019893046 -0.593827188 0.201782048 0.070962466 0.104196317 -0.256181359 0.059392907 0.022305865 0.452016979 -0.030310737 -0.057654653 0.087960541 0.040485173 0.150751531 -0.255014509 -0.037965223 -0.328911334 0.306049943 -0.393332362 0.141029760 -0.211764485 0.007949121 0.069384180 0.247629330 0.017293436 -0.464238465 0.697847307 -0.041674979
78551 0.079387546 0.199200973 -0.081659488 -0.025413150 0.032038726 -0.064089082 -0.759477496 -0.042329054 0.852211773 -0.237896085 -0.027201748 -0.368908286 0.222875789 -0.533708215 -0.045694306 -0.112552546 0.195535585 -0.450476915 -0.056711763 -0.775237381 -0.309688300 -0.299455911 -0.296677530 0.600214422 -0.344066828 0.152344957 0.145596728 -0.164985791 -0.331975728 0.059604600 0.295968622 0.402672619 -0.695727229 -0.446551323 0.388896465 0.124320887 0.359254271 0.041436635 -0.334858388 -0.754394233 0.283491939 -0.348345995 0.123539098 0.220783100 -0.046454173 0.151152998 0.038605869 -0.264634073 -0.895413399 0.165426642 -0.374298781 0.130739629 -0.560499012 0.327747732 0.113196470 0.262683868 -0.602806091 0.377313524 0.223958194 -0.344419420
4589 -0.132768050 -0.052975632 0.483057171 0.007332486 0.049097199 0.220344424 -0.412991583 0.281155616 0.206361830 -0.184950963 0.248034611 0.076664753 0.504895329 -0.266997576 -0.158791021 -0.096909203 -0.152890384 -0.016089151 -0.054966897 -0.192356721 0.081559017 0.202579558 0.241059810 0.361573011 0.049870122 -0.008265042 0.242895007 -0.337050855 -0.032551896 -0.041192010 -0.209106058 0.360431135 -0.240913972 -0.203497753 -0.005806005 0.285332352 0.079688199 0.266378164 -0.269880772 -0.202739313 0.054191485 0.003622288 -0.091298126 0.164915323 0.578745961 0.013154835 -0.128050983 -0.376635402 0.016084913 0.139250770 0.182404175 -0.390166640 -0.020403448 0.038488131 0.064741366 -0.231386214 0.135419995 0.438393533 0.523990214 -0.440806568
311 -0.037057165 0.041942954 0.070564069 0.001332264 0.484173626 -0.069412827 -0.472237825 0.003327977 0.108022340 -0.048650626 -0.081053019 0.169924438 0.102913231 -0.011618412 -0.229282677 -0.564904451 0.255185664 0.022661282 -0.008341466 0.006173048 0.146423459 0.106796883 0.264581293 0.264393240 -0.038176563 -0.153292879 -0.079295017 -0.120539509 0.153621539 0.022552712 0.257619143 0.167467877 0.174107552 0.033269584 -0.183739275 -0.320300937 -0.202720791 0.419555902 -0.716125309 -0.077510543 0.116807014 -0.287386745 -0.046294093 0.026271733 0.805259526 0.247217625 0.031161407 0.123603836 0.229319736 0.147060797 -0.252704650 0.311898857 -0.275258660 0.078284912 -0.134440571 -0.095422521 0.058346208 0.354291081 0.512071311 -0.398706317
7220 0.222715795 -0.037118647 0.521508873 0.568901658 0.495687157 -0.435724407 0.447849989 -0.019909274 1.117851138 -0.738031089 -0.491270036 -0.413119972 0.139617920 0.343317300 0.034549814 -0.531062722 -0.325174600 -0.255877495 -0.686634898 0.125300318 -0.057051700 0.123384990 0.128481939 0.025837040 -0.222854972 0.106987625 0.108744867 0.366341501 -0.355995983 -0.074496754 -0.003361501 -0.197955981 0.387782723 -0.296031475 0.200748265 -0.392545879 -0.470696688 0.790462911 -0.217373982 -0.651823938 0.757644951 0.246204555 -0.018550139 -0.212625459 0.646112502 0.200417534 0.469562948 -0.682258606 0.667579114 -0.113925874 -0.108295113 0.520445585 -0.771944880 -0.278978229 0.099415459 -0.045234840 -0.204023421 0.477473795 1.017092466 -0.012677425
71946 -0.075016886 0.143286809 0.471766829 0.918470860 0.645442069 0.005521500 -0.609757423 0.037077818 -0.221524388 -0.175267443 -0.004811932 0.144492432 0.153320730 -0.016864110 -0.591214776 -0.480238259 -0.096722238 0.006051252 0.180586606 -0.109067701 0.286471754 0.178866208 0.035614237 0.657361329 -0.469046772 0.044520110 0.088965237 0.198620647 -0.455640107 0.036218636 0.499871135 -0.323865414 0.799672544 -0.552073658 -0.297238410 -0.123869374 -0.412572205 0.479047477 -0.823523402 0.087897152 -0.141529351 -0.063159250 -0.080362305 0.079283975 0.628990591 -0.620772719 0.416533142 -0.831266940 0.370855540 -0.851005971 -0.244757146 -0.239472449 0.337659776 0.008370120 -0.548643112 -0.773715854 -0.322945744 -0.066426136 0.771817207 -0.105170146
2724 0.121568099 -0.051944900 -0.046902318 -0.172319636 0.262110859 0.120016828 -0.477926344 0.249950618 0.500990868 -0.421524704 0.123813249 0.012348837 0.271612644 -0.082842901 -0.033234645 -0.045193836 0.158712074 -0.027276307 -0.048469078 -0.312183768 0.045662843 -0.151910961 -0.029294087 0.214448676 -0.026357366 -0.020845642 -0.056408096 -0.275581867 0.125804901 0.092965275 0.272662669 0.001846606 0.291038871 -0.067022189 0.224780247 -0.297475845 -0.391919583 0.310464680 -0.706831455 -0.283287257 0.340314418 -0.354625434 -0.049971599 -0.169481367 0.325248003 0.176583141 0.257276505 -0.011956870 0.096785061 -0.110448986 -0.200287238 0.264713109 -0.224922463 -0.328899503 -0.206450820 -0.309669644 0.060876042 0.284095526 0.461903244 -0.155729741
7455 -0.476429135 -0.652918220 0.257912070 0.762595832 0.097796917 0.169531003 -0.600619435 0.649518311 0.777768314 0.072357081 0.293297857 0.017229265 0.726919651 -0.356589258 -0.044684213 0.284838915 -0.115054838 -0.137634322 -0.075294003 -0.385419399 -0.285319388 0.722497165 0.076309554 0.411438316 0.310734749 0.091218457 -0.612716615 -0.296798557 0.508650064 0.132564828 0.324155122 0.120208241 -0.554877698 -0.044826873 0.067641102 -0.321923345 0.227637216 0.021300809 0.076677755 0.124778792 0.528611243 -0.383136362 0.030612908 -0.246945009 -0.219982475 -0.200831786 0.250729471 -0.035878547 -0.399898052 0.191060022 -0.461071432 0.446652055 0.098156601 -0.031719323 -0.486972541 0.079911456 0.435491472 0.242139995 0.503065825 0.196851984
45829 0.366352826 0.126551867 0.595403790 -0.387682706 -0.012687719 0.016987227 -0.412893355 0.236838043 0.605197847 -0.248796254 0.238226131 0.146435589 0.545789778 -0.311570138 0.242589474 -0.037001640 -0.324828476 -0.119561188 -0.231454924 -0.219346106 -0.141319454 0.061966471 0.516017616 0.303407162 -0.043482605 0.019312311 0.081559494 -0.502964199 -0.003521710 0.146904901 -0.093894482 -0.036827408 0.146815643 -0.140067786 0.159360409 0.213423297 0.151295841 0.289531410 -0.646990120 -0.449908197 0.628277242 0.187055111 -0.062072545 0.063039213 0.025938893 -0.206833243 0.334290683 -0.165070131 0.118181281 0.114228427 0.081165411 -0.189266786 -0.297349066 0.009961225 -0.219757155 -0.015903816 0.344708771 0.137288913 0.314204633 -0.612154186
V1259 -0.093544707 0.269755214 0.582145929 -0.109416351 0.429702908 -0.218832344 0.053010583 0.052819133 0.732092261 0.127163053 -0.023328112 -0.069104224 0.379862189 -0.592893422 -0.492294937 -0.350537628 -0.194201261 0.034612827 0.198902160 -0.462656528 0.045720197 0.739799857 -0.238797158 0.013304839 0.084674686 0.038990445 -0.289112121 -0.514416158 -0.214144886 0.113372289 0.476927280 -0.730058968 -0.066507801 0.329111934 0.174170256 -0.078824036 0.121792085 0.260208488 -0.422494084 0.203938469 0.643896461 -0.522361696 0.483841121 -0.288868695 0.319763422 0.382519156 0.029931748 0.119133241 0.140022516 -0.252893001 -0.195728213 0.038052909 -0.069939628 -0.426480383 0.256343305 -0.770086586 0.087125264 0.705087900 0.544132352 0.141441450
25080 0.278821886 -0.029773718 0.008272886 -0.320238650 0.075648628 -0.141092598 -0.619559586 0.569438636 0.303147823 0.629479170 0.282164663 0.201635182 0.589102328 0.272082418 -0.048760332 -0.262393087 -0.178510040 -0.164375931 0.033789512 -0.287657946 0.593588054 -0.185643211 -0.095739923 1.090818286 -0.501227975 -0.004743731 -0.033471227 0.117510512 -0.030398853 0.801625252 0.016997971 0.675379515 0.065115511 0.020386050 -0.113895938 0.322958857 -0.075318113 0.034953453 -0.264665812 0.121982016 0.584587693 -0.307404220 0.131117672 -0.072620712 0.376837373 0.427836448 0.408880860 -0.475238591 -0.255238473 -0.100382827 0.379411846 0.195356041 -0.020283535 0.060365073 0.301344454 0.132669792 0.106018156 -0.344569027 0.888937831 -0.415172309
78039 -0.257066488 -0.345582515 0.146831274 -0.591572583 0.465517610 0.255461127 -0.479001164 0.010670833 -0.218226135 -0.005185099 -0.241692364 0.041799583 -0.077736884 -0.166097835 -0.094155677 -0.352657080 -0.033477291 -0.213534564 -0.150955737 -0.642605424 -0.071537949 0.215817392 -0.176778689 0.218956664 -0.101242445 0.163708627 0.079086468 0.211823091 -0.424074471 0.003899025 0.482794344 0.124271527 -0.020324279 -0.546701312 0.155851156 -0.089619525 0.365765005 0.595666468 -0.036867350 -0.039804552 0.260498494 -0.301204115 0.109574482 -0.081122234 0.817365468 0.323523462 0.031483762 -0.276330978 0.173437715 0.023730921 -0.051451217 0.004237480 -0.322753012 0.231841058 -0.211136729 0.213427290 0.603932083 -0.118372791 0.091067530 -0.077875584
29633 -0.387083203 -0.410416692 0.139140397 0.027686456 0.233058363 -0.789271116 -0.552947104 0.160633802 -0.066790983 0.342591316 0.160761550 -0.411677510 0.128825605 0.162115455 -0.593076289 0.216830239 0.117544957 0.404262036 -0.772698998 -0.508259177 -0.028068688 0.400016338 0.099213913 1.299108982 -0.591984808 -1.070705056 -0.480844408 -0.213527203 -0.312119156 -0.518070579 0.326766074 0.141336113 0.126824886 0.016927682 -0.343213439 0.220521241 0.170188025 0.311625391 -0.737751186 -0.630939484 0.272146493 -0.989755034 -0.852946043 0.105199508 0.940101802 0.077341236 -0.459079683 -0.968507111 0.988881528 0.813124120 0.439476192 0.643251836 0.068241410 -0.214718446 -0.609694660 0.366321892 0.131839484 0.684892058 0.553561032 0.107672587
V5867 -0.033636335 -0.113575660 0.228836939 -0.216145724 0.201527640 0.064573772 -0.230159998 0.164605126 0.652458608 0.127666384 0.099775597 -0.057147797 0.653373837 0.225506186 -0.376127213 0.053019747 -0.176143661 0.052607685 -0.011895308 -0.381412238 0.000952896 0.053390399 0.053026512 0.306863129 -0.364425927 -0.258210003 -0.343657464 0.066123329 -0.179766357 0.029722681 0.311140746 0.209874779 0.366276771 -0.054371685 0.272405744 -0.823733926 -0.439492315 0.334821045 -0.778782070 0.213281661 0.220240086 -0.200220197 0.021101799 0.259624481 0.626075029 0.351048172 -0.066456787 -0.079076581 0.063638724 0.219331279 -0.007979352 0.008265493 -0.129674539 0.216955721 -0.031476460 -0.634531677 -0.264605969 0.033220813 0.309863448 -0.401577890
E9323 0.239112034 0.130181476 0.344953120 -0.273706436 0.077437393 -0.290160209 -1.054813504 1.139828563 1.323516607 0.831264496 0.439975172 0.087061092 0.982076764 0.189495295 -0.755558908 0.193445802 0.144437551 -0.228011072 0.186541393 -0.288373619 -0.038299892 0.111747712 -0.160401344 0.338144243 0.077027418 -0.269536972 -0.656281173 0.043185860 -0.264917731 0.477598906 -0.257579297 -0.121774189 0.522112370 0.299550593 0.061132275 -0.423329473 0.388716698 0.217000008 -0.327910811 0.036349688 -0.067183048 -0.422967613 0.376158148 0.178752586 0.277755708 0.741031408 0.274387002 -0.753225148 0.500018537 0.288779646 -0.001115906 0.290744424 0.018035775 0.169490010 0.292441010 -0.144209072 -0.377973765 -0.562340498 0.342152685 -0.600339949
V5869 -0.031853307 -0.207373902 0.669550180 0.840216994 0.250902176 0.198442250 -0.262702405 0.018247642 0.674702406 0.450110435 -0.128020927 0.276419103 0.310096622 0.199141920 -0.432126671 0.177258953 0.326298356 0.396304458 0.053263754 -0.599066198 -0.283691496 0.644007444 -0.202572152 0.098406374 0.228036776 -0.590360224 0.368092895 -0.211632892 0.240655601 -0.012006667 0.270651340 0.450057000 0.852023602 0.270565867 -0.044602834 -0.057408072 0.261289835 0.429029882 -0.940125942 -0.129441231 0.142678872 -0.277768433 -0.346479148 0.218993902 0.665653169 -0.043437675 -0.196921423 0.352413088 0.754113436 0.167231888 -0.330034405 0.686902404 -0.161072731 -0.122590594 -0.348354489 -0.068220153 0.009619757 0.207212448 0.172185659 -0.273074687
47829 -0.487379700 -0.325330019 0.692588210 -0.364733666 0.094538026 -0.183810800 0.128853664 1.324695110 0.699341178 -0.045101844 0.368230045 -0.958597779 0.389433771 -0.388410956 0.889932692 -0.646050215 -0.447674513 0.279838920 -0.196262658 0.064702533 -0.019710919 -0.293074042 -0.128171682 0.854053557 0.933231592 -0.799413383 0.415392667 0.120837629 -0.802717686 0.526077926 -0.362090826 0.132236153 -0.088573366 -0.258118778 0.723488212 -0.612749577 0.366707265 0.008132695 -0.713020325 -0.449445516 -0.024301041 -0.190496758 0.129468352 -0.418995261 1.329651952 0.054272600 0.680861473 -0.154409409 -0.001133919 -0.535301924 -0.202815115 0.025278442 0.068392329 -0.426422209 -0.093785830 -0.285080045 0.134414524 -0.469883233 0.042436667 0.168175548
78057 0.470639914 -0.155578867 0.393728554 -0.151964739 0.256823748 0.042777423 0.137387976 0.666412830 0.357296973 0.115720138 0.017676990 -0.426396042 0.361117303 -0.143545806 0.121623360 -0.873951137 0.116877541 0.142695978 -0.350431025 -0.602153301 0.090990275 -0.331747055 -0.005673124 0.360964835 -0.140571803 -0.097562842 0.478942722 -0.209751517 0.031855304 0.283837885 0.113444500 -0.105806574 -0.349495649 -0.118644707 0.592641830 -0.475355566 -0.301570714 0.078130074 -0.167705059 0.035324980 -0.000844530 -0.191164836 -0.243461266 -0.239135981 0.798406065 0.122661106 0.270234197 -0.522707582 0.260470957 -0.393380404 -0.664865792 0.207603052 -0.030960074 -0.678592741 -0.091518402 -0.328644782 0.145113394 -0.020901499 0.538297653 0.048686963
78321 0.042016923 0.257978410 0.323196858 -0.319365472 0.361018807 -0.064460114 -0.547284544 0.539302349 0.114779294 -0.449718475 0.764756799 0.602839768 -0.170099810 0.512416422 -0.367134959 -0.627233386 -0.044789050 -0.067142114 0.150667086 -0.300459892 -0.232892454 -0.185316011 0.034912940 0.208563641 0.162401393 -0.727443457 -0.344908953 -0.409252107 -0.036959730 0.329893708 0.030398007 -0.599480748 0.782459617 -0.654991090 -0.065730684 -0.279992789 0.493214816 -0.039112933 -0.712138236 0.201267377 0.558206201 -0.542841554 0.069683753 0.326261997 0.455382556 -0.125700578 0.416789562 0.440647453 0.205854043 0.260589063 -0.066392884 -0.395011097 0.297845900 -0.160557702 0.546589613 -0.176743016 0.115451418 -0.037838455 -0.016025070 -0.500474751
4264 0.005333464 -0.053426500 0.073838659 0.113782376 0.493789762 0.164968461 -0.658706307 0.234482199 0.644187927 -0.628733575 0.295847595 -0.047526237 0.434027404 -0.351469666 0.020930758 -0.197739989 -0.351355016 0.153432786 -0.088124573 -0.512198687 0.140803233 -0.421784192 0.456854880 0.053441886 -0.379997790 -0.124153711 -0.237312749 0.021510871 -0.025042240 0.066822462 -0.286386311 0.114331618 -0.069564089 -0.420484215 0.151330605 -0.240611151 -0.031013556 0.231081769 -0.575131536 0.330772758 0.145831704 -0.011517782 0.163485348 -0.077931307 0.184241712 0.245893121 0.473584414 -0.189087480 -0.183585703 0.000454334 -0.459611267 0.412558407 -0.004303399 -0.231065542 0.173714474 -0.466906250 -0.202014014 0.481687516 0.318743438 -0.452385455
V170 0.091120332 0.048624624 0.136321574 0.077169552 0.425432950 -0.971588016 -0.602985382 0.228065863 0.257112801 0.400505930 0.461195946 0.037307810 0.065529771 0.150499344 0.645395279 -0.544653535 -0.148651794 0.390865743 -0.024966052 -0.177502930 0.243879944 -0.104569048 -0.169735968 -0.407272786 0.061878864 0.140212148 0.019448720 -0.030943885 0.051690284 -0.035217118 0.589431286 -0.119298935 0.528643906 0.117001027 0.079794057 -0.065794878 1.769365311 0.727632105 -0.962276399 -0.569996536 -0.062522300 -0.252901763 -0.712090313 -0.110215910 1.069175839 -0.929249763 -0.074130513 -0.276233286 0.445373327 0.234511927 -0.834417641 0.611200213 -0.876483202 0.695500135 0.238917142 -0.146609113 -0.625760496 0.373173475 0.218672052 -0.942974150
80502 -0.019943478 -0.319329292 -0.147912890 -0.790607035 0.755698681 0.391891003 -0.512587309 -0.749567330 -0.054654319 -0.691172242 -0.766884387 -0.182342812 -0.380423516 0.011361115 -0.005453447 -0.205093890 -0.343876600 -1.288864732 -0.568866909 -1.130416870 0.630033314 1.036226392 -0.423571467 -0.032573447 -0.400008619 -0.561590612 -0.117609754 -0.349353790 -0.342137963 -0.337850958 0.370967150 0.238704324 0.025253041 -0.082155868 0.199314103 0.128998548 -0.254860252 0.048527833 -0.255391061 -0.017100099 0.228257880 -0.312941372 0.357707053 -0.243460402 0.730585992 0.018613998 0.075187743 -0.252925992 0.164390638 -0.256630808 -0.939832270 -0.046812769 -0.671721458 0.660645068 -0.305413991 0.879490316 -0.634052575 -0.207785159 0.888526618 0.014468070
5990 -0.414364785 -0.054769859 0.057560802 -0.234206215 0.084001891 0.230024859 -0.219906375 0.143115133 0.439151078 0.023827290 -0.328731090 -0.026396211 0.225926951 -0.392207861 -0.252117932 -0.384884924 0.245932996 -0.504504263 -0.242235109 -0.383672714 -0.255502015 0.194927439 -0.047270618 0.276293755 -0.258911520 0.017525306 -0.051496010 -0.330945194 -0.272520453 -0.058535054 0.182047114 0.337827384 0.104147375 -0.206565648 0.005017493 0.187947839 0.061622880 0.010907872 0.311306030 -0.338097543 0.361294806 -0.237624735 0.197216719 0.004474399 0.492239952 0.251526088 -0.015885435 -0.091922775 -0.332460105 0.011568400 -0.112279505 0.073755726 -0.330643982 -0.284291744 -0.056141350 0.139948428 0.041380718 -0.226000682 0.561173081 -0.056776650
5964 -0.079864100 -0.001373278 0.230459258 -0.051548071 0.616561174 0.419901580 0.449424386 0.594593585 1.253573298 0.047582097 -0.501300752 -0.506933987 -0.018029852 0.140449882 -0.479269415 -0.824579597 -0.045941129 -0.507174790 0.763732016 -0.187060937 -0.035471924 0.554678261 -0.199591666 0.802683771 0.262733847 0.049577195 0.953638971 -0.414128363 -0.389381588 0.508621216 -0.256055027 0.364895821 0.442970753 0.102604531 -0.267260879 0.465829194 0.198079869 0.664508224 0.089564316 -1.179329872 0.965171278 1.003622890 0.317553252 -0.098321609 0.401730895 0.678760350 -0.906372607 0.343858480 -0.627306521 -1.028647900 -0.834989905 0.027127618 -0.292915076 -0.055135600 0.402545512 0.629234493 -0.204287693 0.573762000 0.226247951 -0.116426855
E8809 -0.464915127 -0.305744439 -0.126390502 -0.364515245 0.397991776 0.529344797 0.079714037 -0.325003952 0.233904466 -0.331690967 -0.685503304 0.195029870 0.096110955 0.431910217 0.325396359 0.135905236 0.219975993 -0.288850814 0.037459377 -0.693665743 0.956253707 0.625074327 -0.269450366 0.421099365 0.284320265 -0.446041882 0.035661343 -0.230691999 -0.525039792 0.484880298 0.216865644 0.133734673 -0.093954064 0.106270671 -0.565982997 0.177197948 -0.013938635 0.180214763 -0.604563534 -0.261327267 0.925317109 0.131386846 -0.216992244 0.109859206 0.779772341 0.343023598 0.233267292 -0.506330490 0.712506652 -0.180636957 -0.925022364 0.062572837 -0.650081396 -0.308602929 0.487102777 0.430967659 0.249911323 0.044212360 0.220738336 0.349341214
8220 0.494872004 0.046253346 0.799544156 -0.180981413 0.804619610 0.226727247 -0.284020364 -0.137802541 -0.061618403 -0.427320063 -1.352164745 -0.702655792 0.308059037 -0.060472965 -0.638239086 -0.571665108 0.049944919 -1.335275650 -0.418308139 -0.485452592 0.232865006 0.689699233 -0.467687130 -0.009410315 -0.587339699 -0.703036129 0.706229925 -0.106196277 0.618807256 -0.014847047 -0.193697497 0.372223377 -0.186767995 -0.389574409 0.109943330 0.432493001 -0.150384530 0.693497658 -0.495261222 0.144990459 0.334908694 0.579585075 0.139597908 0.253600299 0.222276807 -0.097010724 0.684780240 -0.994183362 0.676328838 0.325437188 -0.303337336 -0.831383228 -0.192447886 -0.182257473 0.888536036 0.310864598 -0.113933332 -0.215489924 0.764481902 -0.080225110
73300 -0.079262845 0.052816242 0.168489337 -0.064663157 0.687454462 0.295128047 -0.337516129 0.170867056 0.383164763 -0.198302269 0.115789212 0.208023608 0.061875928 0.369984508 -0.408986539 -0.407294631 -0.201518729 -0.157319307 -0.170709163 -0.378115743 0.289804906 0.337278605 0.181460261 -0.190081209 -0.223901987 0.095706515 -0.091107897 -0.395747662 0.400663793 0.041041795 -0.193129629 -0.130209193 0.149267182 0.028511079 0.214143023 0.420568287 -0.358625352 0.099416941 -0.329782546 0.045187697 0.397033125 -0.177757442 0.342515796 0.144117773 0.436940670 0.533097565 0.345773607 0.027581129 -0.175046802 -0.300626159 -0.426765949 0.283260614 -0.347159922 -0.139406115 -0.301307738 -0.063084990 0.147637695 0.204634905 0.396995485 -0.650043786
2948 -0.240182176 -0.304087788 0.145235270 -0.421361744 0.074863359 0.327518582 -0.197346285 0.096036784 0.289611667 -0.187409669 0.210618451 0.430874854 0.157444477 0.291718721 -0.268404394 -0.136094779 -0.260262698 -0.678176701 0.013873572 -0.670510054 0.645106435 -0.243096605 0.159022123 -0.027347689 -0.062067330 -0.046147749 -0.019888606 -0.116640516 -0.021217506 0.094837382 0.162096158 0.238135204 0.217872515 0.169978753 0.526691794 0.367660731 -0.031578366 -0.090863220 -0.498384804 -0.230811566 0.574608982 -0.445183396 0.318314672 0.000634934 0.512523055 0.711833000 0.021112649 -0.442753613 -0.121494271 -0.579270780 -0.625469804 -0.428041637 -0.329074353 -0.457431853 0.283300459 -0.296792388 -0.014586796 0.274809897 0.405135393 -0.220567480
44321 -0.516013384 -0.762105167 0.186677903 0.042671580 0.432541609 -0.319423378 -0.271214992 -0.603227735 0.670060277 0.120332703 -0.393210560 -0.854798138 -0.068223864 -1.120651007 -0.371435404 0.095756203 0.291786253 -0.566126406 -0.153070271 0.060338836 0.049400799 -0.204816714 -0.825351715 -0.169285908 0.299799144 -1.115803480 -0.217305869 0.249702543 0.548562944 0.298100352 -0.194719851 -0.691778839 -0.405228257 -0.889857829 0.955371618 0.116022624 0.942320287 1.504976511 -0.483008683 -0.691138148 0.024363633 -0.206789970 0.722899854 0.236915961 0.255251527 0.577027500 0.511871576 -0.238031685 -0.768647671 0.270604193 -1.464973330 0.350434303 -0.959740043 -0.772950351 -0.593432128 0.630027533 -0.373591304 0.761108339 0.526969552 0.543332458
5781 -0.294285357 0.093597069 0.078571238 0.175447762 0.803665161 0.220078990 -0.358780891 0.225045666 0.429739505 0.123777978 0.472753525 -0.378598660 0.423349857 -0.516632080 -0.245270103 -0.287247628 -0.033501249 -0.160070404 0.063797429 -0.454131573 -0.167686179 0.135125235 -0.110142060 0.354326904 -0.129368231 -0.291816324 -0.449749231 -0.240981117 -0.128613070 0.429705054 0.234593317 0.282969832 0.015813163 -0.275817573 -0.115711033 0.588256776 0.241344258 -0.227221176 0.035481315 -0.287492782 0.272743940 -0.063939601 -0.370515525 0.347244501 0.247918949 -0.212369800 -0.243016109 0.082527272 -0.242195889 0.298849791 0.113799676 -0.508744776 -0.307062328 -0.538865030 -0.419207215 0.003030668 -0.013960443 -0.204708666 0.502164423 -0.311257809
4592 -0.281724215 -0.181783766 0.785713971 -0.116275109 0.726219714 0.212755740 0.028213328 0.358266354 0.432345152 -0.200997621 -0.046935800 -0.514765859 0.414497077 -0.159823716 0.159310818 0.305073231 0.192581564 0.224255309 0.230404004 -0.448331863 -0.301141679 0.421300858 0.343706191 0.307703644 0.309712112 0.063175850 -0.055006001 -0.631482303 0.081401505 0.530025601 -0.126792476 0.264161229 0.004254210 -0.905918062 0.844311237 -0.280161798 0.394913167 0.251311213 -0.184868842 -0.047200102 -0.075957060 -0.131873086 0.083162971 0.523558855 0.044877391 -0.049682714 -0.486754268 0.336904556 -0.326582789 -0.369520605 0.356128216 -0.114758678 -0.511791945 0.362657726 0.405777425 0.184888080 0.426784217 -0.761790335 0.919665515 -0.416051716
42731 0.109448828 -0.027394317 0.242870197 -0.143450767 0.126515165 0.328347683 -0.237397283 0.287836373 0.349861413 -0.391523063 0.130523860 -0.063955180 0.256612182 -0.340418130 0.082598634 -0.170454532 0.082798257 -0.182315499 -0.089722179 -0.539307892 0.064016163 -0.187062427 -0.030929502 0.160539761 -0.132712066 0.096136399 -0.260143131 -0.176047802 -0.177658841 0.220260367 0.277096927 0.225976110 0.094094962 -0.250991285 0.299624115 0.087095797 -0.097534880 -0.012131154 -0.143621936 -0.183587536 0.472601682 -0.107537284 0.249516621 -0.181117624 0.244101793 0.192394853 0.123472765 -0.126975313 -0.181903467 -0.108676963 -0.496881455 0.088300310 -0.270093411 -0.242578298 0.029123880 -0.046836127 -0.131986663 0.030017240 0.555175126 -0.202634916
4271 0.029743437 0.213172793 0.529029071 0.049072411 0.386492997 0.201217383 -0.552296638 -0.041781038 0.541668236 -0.335187644 0.087827727 -0.167289928 0.055054225 -0.490068525 0.161758915 -0.157581344 0.216229856 -0.516276002 -0.273139626 -0.433464050 -0.118562751 -0.157162085 0.051028941 0.662669837 -0.063812740 0.094374947 -0.192758232 -0.376945704 -0.446487576 -0.064792700 0.519670069 0.398923367 -0.146171436 -0.394888163 0.316740155 0.003041119 0.055914726 -0.212653086 -0.203895092 -0.479968637 0.315342784 -0.264301598 0.097868018 -0.057653408 0.095714658 -0.295103192 -0.173022196 -0.263148606 -0.504238963 0.077111319 -0.207140133 -0.113641754 -0.705555975 0.061786450 0.062749162 -0.156129465 -0.127774417 -0.068779849 0.295142293 0.078858592
28521 0.423335612 -0.775906086 0.474500030 -0.366273850 -0.076916665 0.248903722 -0.383052588 0.096296795 0.779171467 0.389726877 -0.202420220 -0.016374215 0.114144489 -0.032741047 -0.670411170 0.004657669 0.096426398 0.200804055 0.321491092 -0.342309207 0.009235506 -0.097500414 0.012708900 0.308313549 -0.207081154 -0.508967340 -0.332571596 -0.310977936 -0.060034435 0.295503825 0.145424113 0.651136637 0.300520957 -0.110996291 -0.045768678 -0.212693319 -0.349442482 0.674655259 -0.244816676 0.102605641 -0.087266102 -0.247648761 0.342471331 0.070896670 0.116982318 0.359985441 0.113423906 -0.001355303 -0.609574080 0.012050031 0.030949811 -0.187846914 -0.040325042 0.130315408 0.522233486 -0.674878061 0.132323176 0.253658503 0.665795803 -0.565264761
1122 -0.330175191 0.090714343 -0.106977694 -0.357856393 0.089431092 0.001387715 -0.189625576 0.514626920 0.544759095 0.112766623 -0.273345083 -0.077017397 0.416332275 -0.402264714 -0.603988051 -0.477095753 -0.048000108 -0.208504573 -0.114669085 -0.211925477 -0.302960604 0.315787286 0.454089791 0.602382898 -0.122491583 -0.461185515 0.038091362 -0.166617617 -0.341005474 0.384028018 0.196486861 0.426747680 0.071057156 -0.543613493 -0.183833644 0.064712368 -0.107822426 -0.231624082 0.086618066 -0.055575043 0.505148888 -0.053443603 0.136707351 0.242142528 0.632394731 0.458175480 -0.131930679 0.133399919 -0.543955088 0.031600155 0.086097538 -0.109610364 -0.115763634 -0.337662369 -0.014861654 -0.044827912 0.368952721 -0.351717323 0.413236797 0.220867634
2749 0.158209145 -0.180165425 0.248513535 -0.051459506 0.161727637 0.392524242 -0.085367367 0.060337611 0.467651546 -0.532105148 0.138450548 0.222824827 0.546213865 -0.104760438 0.068004727 -0.209970608 0.199509278 0.293609709 -0.057713892 -0.321719944 0.338595986 -0.238450974 -0.074715406 0.258956283 -0.181539625 -0.210436791 -0.234324440 -0.117730625 -0.168071955 -0.014475171 0.342402965 0.295104831 0.091780327 -0.281022519 0.210989460 -0.153989598 -0.209335119 0.135036513 -0.770153344 0.119117387 0.050011575 -0.339751452 0.122920640 0.104110032 0.247239530 0.260564983 0.302601755 -0.003156918 0.207185030 -0.150016695 -0.065447167 0.215962589 -0.290544063 -0.090896107 0.075537562 -0.312772304 -0.003660270 0.246466845 0.639099002 -0.231892809
V1046 -0.100899480 -0.136390597 0.299705029 0.081095047 0.292255104 0.370452762 -0.000624217 0.427670211 0.648536921 -0.196883380 0.444081366 -0.094360113 0.469109207 0.016328786 -0.083124720 -0.125766009 0.443816692 -0.075916432 -0.315964103 -0.152713850 0.759298742 0.118939318 -0.592138290 0.089166902 -0.162194282 0.223649278 0.068194784 -0.096736923 -0.536539733 -0.117321037 0.223794565 -0.298915744 0.253486454 -0.049961817 0.410428941 0.164498717 -0.200540230 0.065835990 -0.848157585 0.336092442 0.579736531 -0.246842399 0.180932671 -0.178624928 -0.107219264 0.298372716 -0.108955078 0.318369061 0.023192525 -0.196517423 -0.551673830 -0.046779636 -0.339606136 -0.111236498 0.016303277 -0.026666461 -0.137284875 -0.043622959 0.795511961 -0.563520312
43889 -0.432465345 -0.021906856 0.242246628 -0.164628744 -0.094640933 0.806815922 -0.824780107 0.556903243 0.245529771 0.303113282 0.324498624 0.120546140 0.315037847 -0.005103837 0.049239241 -0.128071219 0.488015503 0.074892908 -0.590292215 -0.655693889 0.481110007 0.132846698 -0.167200774 0.229984373 -0.531130016 -0.947284400 0.080944516 0.472312510 -0.135635316 -0.042404674 0.230089992 -0.198120460 0.475686461 -0.269424498 0.256531119 -0.315158218 0.179773718 -0.005703991 -0.452873170 -0.253827691 0.174168691 -0.325454235 0.887419760 -0.335497469 0.065455206 0.492322445 -0.408373296 -0.276849091 0.068604305 -0.250996798 -0.088844374 0.185852885 -0.292278409 -0.209582105 -0.098641627 -0.442425668 0.003275698 0.932444632 0.604295313 -0.185337424
0388 -0.029683033 -0.305969447 -0.443324894 -0.472979397 0.681683540 -0.079792909 0.008086058 0.229332015 0.911057532 0.369735092 -0.105897255 0.500674605 0.092843153 -0.950409532 -0.487151474 -0.432613671 -0.420377165 -0.169750825 0.557995558 -0.989661455 -0.316071212 0.114572302 0.187921494 0.406259477 -0.400603980 -0.313492417 0.902475774 0.030349819 0.181163177 0.071732223 0.654586256 0.198449343 -0.136760026 -0.576932073 0.278615683 0.024788914 0.639211893 -0.879495442 0.165426910 0.435424685 0.144941136 -0.167107552 -0.273454458 1.253533959 0.634247065 -0.024557156 -0.220689148 -0.616380513 -0.338714063 -0.223260254 -0.225223929 -0.542265058 -0.323336601 -0.005008304 -0.214892939 -0.204505220 -0.206678182 0.070302494 0.607016623 0.063900150
78552 -0.224215150 -0.393163145 0.065445118 0.321130931 0.699403107 -0.388885230 -0.170401692 0.273987770 0.525370657 0.106048159 -0.444026232 -0.070913777 0.264287591 -0.488580078 -0.650724113 -0.157686099 0.161628827 0.328482509 0.098809421 -0.704163671 0.123981304 -0.259386957 0.009636920 0.738769829 -0.442943037 -0.083996035 -0.027946215 0.182016328 -0.337026864 -0.448024511 0.478604913 0.621810913 0.080363579 -0.570553541 -0.036884259 0.426650375 0.624069571 -0.837050796 -0.271848112 -0.081498295 0.252017349 0.035988931 0.645656645 0.616387665 0.810424984 0.144735292 -0.295573711 0.362850100 -0.604278684 -0.095969900 -0.242199421 0.086760700 -0.171352819 0.345792204 -0.049048051 0.393985659 -0.240602627 -0.186112836 0.818066180 -0.015306434
70709 0.025320100 0.014240823 -0.411248416 -0.543221176 -0.069435842 0.123118915 -0.184820443 0.125247061 0.674137414 -0.090843610 -0.018452918 0.184637040 -0.312630922 0.120197795 -0.299242020 0.034454573 -0.030902365 -0.327692151 -0.309880048 -0.337718844 -0.128793493 0.256986618 0.659309328 -0.134582922 -0.277575076 0.091097407 0.153741032 0.044488452 -0.603801906 0.310505211 0.853377283 0.492919981 0.482209891 -0.501812816 -0.488314539 0.047412872 -0.543707490 -0.386807501 -0.328481853 -0.257981241 0.428771764 -0.004990802 0.391336799 0.168645278 0.444510937 -0.056699980 -0.084520146 -0.187536389 -0.096493378 -0.299632847 -0.329178303 -0.432900071 -0.618295133 0.150648847 0.219532236 -0.074087203 0.371321142 -0.234572276 0.833595514 -0.556967556
6823 -0.321741611 -0.611811817 0.179014713 0.118856989 0.069602266 0.012094098 -0.091112047 0.517121971 0.115055695 0.108405098 0.052187245 -0.025289871 0.197170317 -0.294753015 0.370188564 0.059460551 0.289378226 -0.340263456 -0.066905387 -0.601654768 0.084564716 0.257031918 -0.039222151 -0.082983069 -0.397057861 0.564685583 -0.048513327 -0.809505105 -1.006103992 -0.061801776 0.759358644 0.898481965 -0.449587375 -0.544638455 -0.715793669 -0.456691325 0.006609094 -0.110945910 0.417014599 0.219249994 -0.031017272 0.031537995 -0.142534554 -0.178479627 0.455337167 -0.181973711 -0.127423629 -0.322674274 -0.159571037 0.077595755 -0.102427348 0.300194710 -0.342595965 -0.079453319 -0.101174690 0.070787758 0.458942026 0.089467153 0.745304525 0.051780608
99859 0.017422386 0.324514240 0.367775351 0.299482197 0.105678588 0.023838440 0.262679726 0.494424939 0.960994124 0.011732834 -0.421817154 -0.165557384 -0.146485373 -0.097102568 0.020504834 -0.381852716 0.135199174 -0.566694260 -0.409328192 -0.345238417 0.128471896 -0.028595502 0.287115365 0.060575638 -0.299744457 -0.076672882 0.158872724 -0.233266741 -0.618848681 -0.488426387 0.552164197 0.328216672 0.247301191 -0.793981433 -0.194361180 -0.417091340 0.333006710 -0.233444914 -0.150881112 -0.053408712 0.448758900 -0.070982315 0.421427339 0.490357250 -0.160577834 0.009295326 -0.095386282 0.153834626 -0.203705192 0.240195140 -0.227785900 0.239694715 -0.389532238 -0.362794936 -0.297801256 -0.102242172 0.299052030 -0.836763024 0.623815656 0.069429018
00845 -0.313144147 -0.110617310 0.121568687 -0.342216104 0.118003227 0.104625322 0.008149692 0.307816714 0.540742278 -0.041120563 -0.370959252 -0.099963143 0.123704307 -0.092753999 -0.191885635 -0.202565551 0.154040396 -0.390631109 -0.211603478 -0.693478286 -0.420860231 0.228741929 -0.138689145 0.444933414 -0.210860431 -0.112516746 -0.119626030 -0.336312354 -0.369319737 0.079612195 0.286201566 0.369113266 0.077306278 -0.354540825 0.120215818 0.196175858 0.283903718 -0.385146827 0.108346708 0.066565730 -0.035570897 -0.175067842 0.274752915 0.267611146 0.507307053 0.215224594 -0.194134265 0.056387037 -0.147811845 0.018744271 -0.246428922 0.033723831 -0.245634556 -0.168767601 0.210115880 0.185403749 0.157141015 -0.272277594 0.587257624 -0.166662499
5720 0.251143366 0.140515447 0.131031379 0.162596405 -0.126063913 -0.252541542 -0.272630870 0.302005529 0.972933829 -0.146416605 -0.172203064 -0.261462569 0.649705172 0.048596293 -0.164164960 0.011122789 -0.885774374 0.090852350 0.225647807 -1.236743450 0.069564782 0.230624467 -0.181169912 0.031030465 -0.812012374 0.748240650 -0.031368662 -0.508802354 -0.696111500 -0.667455375 -0.382625282 0.586420000 0.878196001 -0.260784239 0.017558664 -0.334425658 1.991548061 0.020546954 0.057726603 0.575796962 0.173912257 -0.531894803 0.116996974 0.313708752 0.913523793 0.238084435 -1.040319204 0.203159109 -0.115830079 0.364804268 -0.165149674 0.006048192 -0.586280644 -0.071122758 -0.828344822 0.200208157 0.130868897 -0.469753712 0.554137051 0.228116944
99592 -0.422411621 0.017955305 0.053329118 -0.250158936 0.160674050 -0.114995927 -0.098551847 0.116352737 0.655928850 -0.058872525 -0.449620008 -0.192658767 0.247519672 -0.175187796 -0.261755377 -0.359070331 -0.038958766 0.257403135 0.067989200 -0.661937594 -0.028410070 -0.130801842 0.237270311 0.843873918 -0.250604689 0.129019126 0.503370821 -0.081402324 -0.247966304 0.111279294 0.044017877 0.508279502 0.268375874 -0.327794969 -0.438284397 0.451719254 0.193024501 -0.518884003 -0.171768218 0.057649463 0.051718425 -0.350045532 0.274382919 0.411304146 0.575559855 0.381476611 -0.032354720 0.015747013 -0.266867042 0.392036229 0.075686559 -0.215323105 -0.433482826 0.228183612 0.158798203 0.109626330 -0.091051012 0.354116082 0.554789066 -0.085578777
V0980 0.005105902 -0.278154075 0.004438896 0.205867276 -0.355399430 -0.380781710 -0.518282354 0.425967455 0.530479372 0.013910939 0.119905017 0.021688826 0.439668804 -0.643252313 -0.846815109 -0.567956865 0.046431258 0.460324883 0.113983065 -0.365414560 0.016800614 0.609102309 0.215422034 -0.093509234 -0.290579677 -0.148025408 0.466055632 -0.067391470 -0.382167518 0.395621061 -0.339144528 0.532977581 0.869392633 0.135278314 0.278804928 -0.574104071 0.065590084 -0.215578243 -0.725380838 -0.133015051 0.363656282 -0.223022580 0.427497804 -0.053404178 0.241872638 0.251844436 -0.357322991 -0.358347684 -0.511681199 0.162227109 -0.088835068 -0.122849301 -0.177660868 -0.145842612 0.412642539 0.491001695 0.330866605 0.156840116 0.396991760 -0.491581589
185 -0.080895536 -0.224683791 -0.004156191 0.465948105 -0.199799970 0.401951015 -0.033138443 0.351594448 0.472934246 -0.404627472 0.745485067 -0.063636355 -0.219328731 0.004884816 -0.112885006 -0.136894062 0.346035600 -0.521300972 -0.254998207 -0.305091202 0.540870249 0.075899631 -0.439841539 0.695704103 -0.181465864 0.261963934 -0.105711617 -0.263990909 -0.447693616 0.256035417 0.261235029 0.043578491 0.492341280 -0.365225375 -0.197442755 0.331601173 0.016038017 0.356090367 -0.418033242 -0.360951424 0.390954942 -0.146570727 -0.370259404 0.042095780 0.084462255 0.129511744 0.034807947 0.481733501 0.001640272 -0.610981107 -0.224251717 -0.074780896 -0.200855747 -0.415841907 -0.116059139 0.214217991 -0.018591503 0.411955535 0.635185719 -0.465633571
4439 0.509599626 -0.037327632 0.221305579 -0.237718478 0.310921550 0.336450219 -0.564296126 0.385339171 0.561050117 -0.218852893 0.098894142 -0.012433016 0.151661322 0.090091579 -0.303029925 -0.194446117 0.036760118 -0.147006020 -0.087588571 -0.343780786 0.043443009 -0.170905158 -0.105869323 0.085171476 -0.263159692 -0.052336525 -0.269628018 -0.088642664 -0.158500642 0.164020583 0.424692214 -0.017644288 0.079973459 -0.328663588 0.069273546 -0.241294146 -0.400793314 0.167040139 -0.844453573 0.053470116 0.318500012 -0.357471138 0.397646278 0.118780166 0.130737960 0.184586540 -0.115538053 -0.125917628 -0.162515551 -0.218524218 -0.185098812 0.166004881 -0.310152411 -0.193401486 0.085848339 -0.309635460 0.214866370 0.567398608 0.366197646 -0.098977417
2449 0.081922665 0.069439866 0.241476789 -0.109437935 0.364027113 0.226225376 -0.126074150 0.208129123 0.385482341 -0.275892228 -0.006175247 0.207039729 0.021561002 -0.069892958 -0.242831588 -0.295106679 0.118238300 -0.002300116 0.000746916 -0.345142782 0.128189608 0.073161557 0.113478683 0.261582851 0.042002894 -0.135212541 -0.090110332 -0.154855430 -0.026043372 0.221303999 0.157175213 -0.022026211 0.101508208 0.040359873 0.252450258 -0.064511299 -0.292811036 0.353286624 -0.448088944 -0.037279695 0.213611975 -0.211901441 0.171084538 0.098269612 0.570080221 0.355493873 0.193097144 -0.145870656 -0.102816515 -0.064220309 -0.320399940 0.270453781 -0.222208515 -0.030790281 -0.169287264 -0.144802660 0.146588787 0.135205850 0.449088782 -0.296005875
E8788 0.108201161 -0.136087894 0.465249300 -0.466966450 -0.230292410 -0.081273638 0.176195189 -0.080708019 0.494624615 -0.155867770 -0.263620853 -0.089356132 -0.116855018 -0.050247222 0.233313426 -0.298984736 -0.112562582 -0.189215913 -0.066769190 -0.621085763 0.242711395 0.001821117 0.070646964 0.119114451 0.264025629 0.211657465 0.186320409 -0.086992934 0.137258306 0.620357037 -0.012869429 -0.063234597 0.808432221 -0.177470744 0.085735299 -0.267503798 0.162707776 0.550075650 -0.392019778 -0.080568992 0.534164608 -0.178819120 0.272738457 0.075298600 0.088071153 -0.055411879 0.308225572 0.255993336 -0.215867832 0.146259248 -0.328424424 0.159633249 -0.701310158 -0.241073698 -0.445013285 -0.133965388 0.291823626 -0.517214179 0.478876561 -0.473014414
9678 -0.586760640 -0.718437552 0.394759089 -0.278556108 0.241807565 -0.427215040 -1.021272540 -0.194354475 -0.263708442 -0.115280792 1.029755712 -1.208474517 -0.243804783 0.299440652 -0.338520497 0.196010038 0.456570029 -0.520799994 -0.077500701 -0.794220328 -0.240555778 0.804742098 0.767401576 1.391496301 -0.066170767 -0.315741122 -0.719326735 -0.239965484 0.219627008 -0.477830052 -0.196223110 -0.257881284 -0.204383045 -0.148141012 -0.283573329 -0.589240134 0.003198254 0.588474631 -0.000495791 -0.894443035 -0.113065273 -0.646577895 0.031312391 -0.506517470 1.143074155 0.351242006 -0.088692978 -1.379073501 0.439053476 0.470060676 -0.073224530 0.035790313 -0.259378254 -0.413111389 0.010938717 0.597848177 -0.203991130 -0.581337690 1.208787322 -0.281743765
9693 -0.116382375 -1.089794278 -0.329609066 -0.292414993 0.322003871 -0.540096998 -1.030343652 -0.140947104 0.458376408 0.259272426 0.431081831 -0.610444367 -0.560905635 1.135249376 -0.193318933 -0.410735846 0.813592255 -0.737902641 0.111233898 -0.828809857 0.506040812 0.306199849 1.240489125 1.189801335 0.269237131 -0.359340250 -0.192927703 -0.852412462 -0.957367361 -0.273612618 1.051843643 -0.435397744 0.020432146 -0.076421455 -0.538747132 0.160803869 0.921567202 0.513920128 -0.190646291 -1.477300882 -0.573516309 -0.584583044 -0.503993869 0.167764559 1.306150794 0.155947044 -0.074182071 -1.197631001 0.625731111 0.137328207 -0.958327591 0.102963671 -0.342067510 0.307421178 -0.491266310 0.746814191 -0.178977504 -0.069324508 -0.077049345 -0.184022903
E9502 -0.437266856 -1.028682828 0.841014802 -0.245946765 0.470421076 -0.796495438 -0.848393142 -0.685637712 0.062375207 -0.128765613 1.316020131 -1.032647610 -0.715268493 0.442619860 -0.434621930 0.670275450 0.369258463 0.114537366 -0.169541776 -0.709273577 0.203979984 0.972894490 0.751900852 1.107539415 0.311013967 -0.480124265 -0.263643742 -0.212056726 0.330392808 0.003755100 -0.150381878 -0.808936357 -0.443978012 0.183827356 -0.668011785 -0.648438215 0.309236944 1.042493582 -0.392334431 -1.409099579 0.568234026 -0.552708328 0.066404901 0.172356218 1.080954790 0.094383821 0.020613274 -1.137986422 0.843594909 0.747103989 -0.458362162 0.161937565 -0.645426512 -0.363101602 -0.460104257 0.421379328 -0.058947973 -0.032571092 1.153173208 -0.091125622
E9503 -0.079119772 -0.996147513 -0.142436415 0.104779117 0.670166969 -0.308291793 -0.530296743 0.030332634 -0.186867535 0.070864089 1.191635013 -1.228310585 -0.004771268 0.767944396 -0.898222804 0.559928000 0.832462072 0.188314497 0.245465592 -1.384835005 0.674727499 0.379927605 0.843239009 0.629309893 0.514255285 -0.353737205 -0.051447164 -0.396325827 -0.605676174 0.035629354 0.807702363 0.052458867 -0.219294220 0.631071866 -1.192926884 -0.397906005 0.800617456 1.147126913 -0.206365049 -1.187313557 -0.227506950 -0.520511925 -0.754463136 0.472035646 1.268336177 0.482345998 -0.187578410 -0.497531354 0.984590352 -0.027550589 -1.008118510 0.214176983 -0.462642848 0.095201559 -0.593534410 0.570800364 -0.153567463 0.122377552 0.342881113 -0.100375384
3488 -0.646650016 -0.408408076 0.133624732 0.024493860 0.206635818 0.246021017 -0.317865282 -0.583514690 0.117837228 0.341435164 0.541958272 0.119652145 0.205922648 -0.494370162 -0.164929315 -0.029993955 0.007240186 -0.224359989 0.091103017 -0.644805014 0.453740448 0.238968059 -0.473497629 -0.183738545 0.916614234 -0.047160100 0.488166451 -0.497866958 -0.048879545 -0.168028221 0.120275259 -0.215436473 -0.373587430 -0.693118632 -0.335264236 -0.762135148 0.037836045 1.155126810 0.421875477 0.107910484 0.838098228 -0.297078788 0.192687348 -0.163931385 0.457683742 0.561776221 -0.377767503 -0.523248553 0.471475273 -0.038286861 -0.377322346 -0.170281157 -0.345628589 0.380614758 -0.102365911 -0.581187546 0.840579927 -0.240804270 0.371073931 -0.216657087
29620 -0.572850466 0.370927483 0.011980531 -0.088567048 0.162371188 -0.244476050 -0.068549752 0.111142300 0.238751292 0.413360149 -0.478990942 -0.182597786 0.314426154 -0.318938822 -0.091082275 -0.259947062 0.505808413 -0.453170598 0.403307915 0.014324910 -0.446469933 0.465343267 0.536234200 0.864288330 -0.262169927 -0.344617933 -0.161717743 -0.455547303 0.392078012 -0.200688332 0.203678042 -0.225247234 0.193731040 0.373646349 0.329076320 -0.673581421 0.664126456 0.149389744 -0.736177027 -0.677347064 0.249850675 -0.413541555 -0.546805501 -0.005882410 0.975509942 0.069256239 0.160003006 -0.453686386 0.448049903 -0.009048228 -0.273497045 0.317967504 -0.217944995 -0.286047369 -0.037889000 0.125814125 0.151001573 -0.235903755 0.301088393 -0.157524318
2252 -0.123403683 -0.104043178 0.444817275 0.519431531 -0.163492963 0.209163740 -0.792305291 0.361059397 0.792846441 -0.642187417 -0.094557799 0.274820834 -0.063899003 0.114692785 -0.449239254 -0.181734011 0.351972282 -0.152453870 -0.477671444 -0.156703055 -0.069674909 0.559648991 -0.280558079 0.005900285 -0.172916740 -0.630574286 0.407198936 0.432581753 -0.107264958 -0.166046679 0.445120692 0.009289633 0.404362828 0.050675008 -0.260637462 -0.044145193 -0.121870987 0.858195245 -0.195509329 -0.374396235 0.412056297 -0.271529555 0.035438880 -0.056746840 0.404541582 0.030196412 0.523398101 -0.068941943 0.175744459 -0.351770937 -0.165127963 0.658529222 -1.449875712 0.320731550 0.297447473 -0.019174088 0.676306248 0.221618667 0.108751319 0.747060835
3485 -0.727238297 -0.183839098 0.348829865 -0.130429268 -0.010900696 0.323474795 -0.204768836 -0.523278773 0.175391123 0.144544259 -0.260316044 0.316235363 0.344791502 0.052264638 0.084498242 0.210703343 0.738116980 -0.496438026 -0.854809105 -0.792664647 0.047179952 0.416684538 -0.704659522 -0.089106508 -0.276077002 -0.499105871 0.266413420 -0.081416123 -0.272550046 0.063882202 1.028151512 -0.608815372 0.558759272 -0.509104073 0.432830870 0.223625660 0.087339960 0.635522664 -0.058807831 -0.014742726 0.480577499 -0.285115749 -0.280349791 0.557257771 0.675809979 0.463761985 -0.177277252 -0.294189662 -0.256650507 0.258229285 -0.214661866 1.045890689 -0.522220731 0.774228692 0.300206274 0.797954440 0.363710225 0.571663558 0.479732037 0.450694382
4241 0.370923668 -0.497240782 0.120398112 -0.104419135 0.113247439 0.188532770 -0.340439945 0.359012365 0.508425653 -0.343509883 0.091557935 0.044386253 0.116559312 -0.413335890 0.318732738 -0.333712250 0.038627554 -0.428914458 -0.099268533 -0.289000303 0.200286910 -0.203864470 0.187600523 0.664379656 -0.400157303 -0.007523303 -0.263379157 -0.493593901 -0.193152636 0.382313430 0.558816075 0.012630865 0.164653018 -0.042733163 0.139891610 -0.159316733 0.009818892 -0.080656432 -0.229002789 -0.102228194 0.162452042 -0.005203680 0.130279630 0.158789843 -0.036378201 0.067274004 0.763854444 0.207052544 -0.231412441 -0.135039002 -0.579165936 -0.075345129 -0.755561292 -0.243755415 -0.004146263 -0.095592357 -0.156879872 0.226853609 0.363163263 0.030786494
V4581 0.485390484 0.388825774 0.193145558 -0.274628639 0.152543515 0.397547126 -0.277290106 0.352484643 0.497916877 0.066871531 0.226386800 -0.135818914 0.103478059 -0.385733694 -0.068810217 -0.190624371 -0.007046257 0.006467717 0.355486691 -0.547910273 0.455170482 -0.276052445 -0.317712635 0.238224536 -0.054426834 -0.197734490 0.054622095 -0.275119603 -0.189446628 -0.218990624 0.239060342 0.194243953 0.263943255 -0.298021108 0.249843806 -0.100066207 -0.419025779 0.168692783 -0.671094060 -0.053699583 0.630766749 -0.012356667 0.198053092 0.188369766 0.367765725 0.450896889 0.060504969 0.107221693 -0.194430098 0.098955654 -0.378791243 -0.250419557 -0.417916387 -0.304986715 0.008306886 -0.571309090 -0.214976519 0.146777466 0.572967231 0.016492594
V4579 0.352095515 0.038356140 0.412839264 0.223049060 0.155047819 -0.565756083 -0.183417737 0.083361775 0.583903313 -0.690143406 -0.413191587 -0.039196923 0.307633787 -0.514687777 -0.317016304 -0.289403290 0.267659426 0.682528377 -0.081843846 -0.145566165 0.230063170 0.257634401 -0.258793086 -0.465082377 -0.210517436 -0.426743329 0.375103295 -0.465560079 0.126545906 -0.347561181 0.429256082 0.158436552 0.899314106 -0.010452989 0.608929873 -0.085524991 0.016351340 0.557208478 -0.926375329 0.154755384 0.399829596 -0.207697019 -0.409589916 -0.532497525 0.735740006 0.057984181 -0.203014672 0.636184931 0.251828253 0.611422300 -0.458648205 0.141314179 -0.258353174 0.379966468 -0.072930112 -0.608794808 -0.488721639 0.367569268 0.477965266 -0.653763652
V4582 0.438865185 -0.031232266 0.293516904 -0.157950670 0.547653317 0.101938486 -0.455180496 0.179988652 0.730953753 -0.118230566 0.223053932 0.078129247 0.210146621 0.001508446 0.087465599 -0.222004056 -0.044537522 0.252981305 -0.081991360 -0.624919176 0.336506873 -0.187919334 -0.321971446 0.211384028 -0.119902223 -0.107272357 -0.290134519 -0.401996225 -0.195079446 -0.097192869 0.247306943 0.096561536 0.355433851 -0.135572135 0.238058075 -0.246865973 -0.510418236 0.212219834 -0.705250502 -0.159192309 0.570197761 -0.359843552 0.030320160 -0.169518888 0.202916116 -0.034617323 -0.040148590 0.305493623 -0.189171612 -0.100102298 -0.180935279 0.039784163 -0.239685267 -0.151426807 -0.153888345 -0.474661738 0.005339199 0.031264473 0.158035874 -0.121996373
60000 0.065261498 -0.246864527 0.050837584 0.108219609 0.211407468 0.324519396 -0.437601805 0.143973023 0.645546913 -0.540717483 0.457946479 -0.068715096 0.155635580 0.082642056 0.023340976 -0.033933010 0.320891023 0.250847220 -0.300521642 -0.172669247 0.447159439 -0.248249650 -0.264514148 -0.171201915 -0.116490260 0.092100538 -0.069455266 -0.252161890 -0.331653267 0.014629262 0.241506219 -0.045993932 0.380223662 -0.154705867 0.123800814 0.084442236 -0.184568629 0.011855413 -0.517244756 0.210090175 0.392165661 -0.197370499 0.183064148 0.032338914 0.121184684 0.379246801 0.209124088 -0.056700099 0.007748167 -0.105108954 -0.403787583 0.199484125 -0.273091912 -0.218222678 0.023616822 -0.319194585 -0.020948010 0.320310324 0.627018452 -0.548609018
3899 -0.026041720 -0.053901318 0.398379385 0.054989260 0.080968492 -0.134038910 -0.311226696 0.221832052 0.706367373 -0.423868984 0.088177644 0.474196345 0.211324289 -0.378274411 -0.435407996 -0.414137483 -0.102744855 0.033001408 -0.635906398 0.342741400 0.575377524 -0.021689650 0.038782097 -0.216532797 -0.066234633 -0.204424530 -0.785293102 -0.047910243 0.296310723 0.475037396 0.036747769 -0.181017220 0.276805311 -0.417895794 0.243567273 0.335418940 0.154460236 0.516472101 -0.487945318 0.162910521 0.576687515 0.285820752 0.565769434 0.179174513 0.629442394 0.267624617 0.209903926 0.125732124 0.282215029 -0.306432754 -0.605710328 -0.005440801 -0.101300970 0.071415521 0.386501491 -0.486827016 0.311462581 0.590344131 0.290593296 -0.602296412
41041 0.527237296 -0.028979458 0.132817328 0.352812380 0.885552287 -0.532758534 -0.314937681 -0.254531741 1.343524814 0.041865796 -0.025638709 -0.161498934 0.113902666 -0.155575916 0.525181830 -0.150555238 0.014047688 -0.507790625 -0.114020213 -1.143581390 -0.035025079 -1.042076468 0.139375284 0.352617741 -0.287001342 0.421749949 -0.414878011 -0.539183378 -0.105906844 0.099474393 0.159474611 -0.149358839 -0.237674132 -0.498586774 -0.297457904 -0.196123913 0.339193135 0.373906136 -0.007146865 -0.342248291 -0.190946385 -0.949596941 -0.210156411 -0.264417976 0.396270603 -0.052132495 0.207420424 0.279458076 -0.594537497 -0.155146360 -0.459328413 -0.240611598 -0.843034267 0.336188346 0.083811544 0.138632059 -0.094470970 0.685444951 0.018594254 -0.174746618
53081 0.196175247 -0.283767939 0.069359235 0.017378923 0.411676794 0.161273748 -0.407669187 0.194995642 0.421189457 -0.202355236 0.358609825 0.017669419 0.213197738 -0.137148201 -0.215578362 -0.397028416 0.088168360 0.057464764 -0.151132554 -0.143570676 0.240832701 0.069824539 0.166486606 0.055298075 0.149966687 -0.121013388 -0.012918185 -0.312710851 0.056611009 0.116391078 0.078788213 0.001068247 0.002617380 -0.048638217 0.190479800 -0.285249323 -0.252634764 0.250526875 -0.324849665 0.127323002 0.300319046 -0.105274305 -0.127522841 0.217789829 0.539226532 -0.003146369 0.216812924 -0.057609938 -0.110248722 -0.024572717 -0.016751599 0.286459833 -0.178201079 -0.111838236 -0.359850168 -0.306229472 0.097313851 0.303354800 0.572772622 -0.334629446
25011 0.760264814 -0.092544109 0.651405692 -0.526466310 0.778064907 -0.186510459 -0.303219467 0.783484936 1.532161832 0.599454403 -0.141298950 -0.314662278 -0.363550365 0.291681856 -0.193117082 -0.075891107 0.312284738 -0.176019549 0.619461715 0.310816705 0.351497561 0.070456803 0.265374064 0.351921648 -0.004350723 -0.228443161 -0.434524000 0.284174711 0.020331837 0.398976386 0.853981376 0.502373099 -0.483217508 -0.774827540 -0.026219679 1.125424862 1.077586174 0.735722780 -0.444098860 -0.370413363 0.135586262 0.119201884 0.022467805 -0.172603548 1.375547171 0.132933021 -0.516784608 -1.199606657 -0.520150959 0.880212069 0.559898794 0.377164215 -0.151188746 -0.554667354 0.436304212 -0.201206252 -0.491911352 0.060563598 -0.184940904 0.360661149
99604 0.101580411 0.696127713 0.588407636 -0.188720375 0.612156570 -0.875823379 -0.833634555 0.355297297 1.791226864 -0.853919744 0.591849864 -0.919774413 0.510941923 -0.503991187 0.777393281 -0.132398084 0.396597773 -0.367681801 0.852742076 -1.348505974 -0.559394836 -0.673670650 0.176937103 0.175227046 0.357133716 -0.237895280 -0.863856196 -0.249424994 -0.079155430 -0.152132466 1.213899493 0.656672955 -0.359436870 -0.403200626 0.195188209 0.086784407 0.105916515 0.179554760 -0.584447980 -0.093545131 -0.082877979 0.360874414 0.231828332 -0.829954565 -0.580775201 -0.553360701 -0.309510678 -0.423778892 -0.423922241 -0.678831458 -0.415524304 0.015389583 -0.955164313 0.349472046 0.632644713 0.307777375 -0.293649137 0.206567764 0.244491458 0.342578590
412 0.351348430 0.304628223 0.204164803 -0.022849705 0.370796233 0.249372676 -0.444439560 0.173130572 0.682756364 -0.103826590 0.103519142 -0.162245929 0.360380173 -0.012741160 0.012883548 -0.126902446 0.188128099 -0.002550560 -0.078958921 -0.440920740 0.162339911 -0.050936483 -0.160299346 0.163067073 0.007026074 0.034183279 -0.198183179 -0.278519541 -0.258532643 0.080422468 0.271462411 0.224516451 0.113320298 -0.147287130 -0.003744557 -0.203452319 -0.429110229 0.271085918 -0.768090248 -0.111530669 0.401980698 -0.424061626 0.155017406 -0.022432439 0.316810697 -0.048734516 0.040404893 0.099110745 -0.061215624 -0.176599383 -0.055533312 0.244399175 -0.339171827 -0.289887190 0.006934237 -0.442453325 -0.068164803 0.420094848 0.352428019 -0.100777596
5939 0.407819510 -0.031793479 0.247386590 -0.035342135 0.597656190 0.183607474 0.034159884 0.310145617 0.265497178 0.037357867 0.038042925 -0.111808926 0.509746909 -0.305970818 -0.476999432 -0.409393460 -0.155004218 -0.055964079 -0.059880737 -0.512561440 -0.200195923 -0.163610145 -0.264176488 0.400051504 0.050692443 0.112630039 -0.388741076 -0.289991200 -0.341415852 0.259329081 0.118718751 -0.053478051 -0.138152555 -0.163742095 -0.042121623 -0.212841913 -0.090201847 0.248704180 -0.516349375 0.156825095 0.300684273 -0.251318783 -0.127044767 0.057681751 0.518151879 0.147027820 0.103558287 -0.350929290 -0.211990505 -0.051923055 -0.426677942 0.061162043 -0.172646895 -0.493478715 0.279614121 -0.191014618 0.140300602 0.654236734 0.170909390 -0.196387917
496 0.259031534 -0.096277624 0.275784940 -0.473334521 0.252751529 0.405084848 -0.375588536 0.189792067 0.432611942 -0.314240515 -0.011790297 -0.055833291 0.236237124 0.025520328 0.160451517 -0.578774631 0.096786015 -0.174001470 -0.198735565 -0.491350412 -0.109623715 -0.142233267 0.043883659 0.055623811 0.173844561 0.096845403 -0.068222053 -0.004532793 -0.201566234 0.082977109 0.171263099 0.160505712 0.138874069 -0.415114641 0.099424444 0.063635319 -0.202644229 0.104842424 -0.314828992 -0.137467131 0.028947907 -0.458913922 0.233885348 0.088349238 0.136995807 0.167359293 -0.134758085 -0.129217193 -0.214770928 0.015746007 -0.302956700 -0.053677879 -0.235410854 0.005761013 -0.225960851 0.038242560 -0.054679845 0.058305230 0.697999716 0.040699314
4263 0.227199465 -0.224897116 0.611595809 -0.379154563 0.336409509 -0.018484883 -0.846509039 0.264592916 0.740994036 -0.347149640 0.546008706 -0.091057576 0.103415318 -0.705845416 -0.135140449 -0.197467044 -0.029518917 -0.495318919 -0.125753000 -0.443111390 0.166170031 -0.580954969 0.284849167 0.173443288 -0.076602072 -0.039274547 -0.180167928 -0.116635002 0.357992530 -0.061588276 0.140364617 0.011703478 -0.079556778 0.187314585 0.329159558 0.120845757 -0.170753002 0.159897387 -0.678516030 -0.235535190 0.262549937 -0.382451564 -0.070254564 -0.064395390 0.007572362 -0.095656805 0.187607750 -0.624600768 -0.138498917 -0.530805826 -0.433645993 -0.025859341 -0.344485849 -0.216414675 0.325208336 -0.386234134 0.239700198 0.251681894 0.088241793 -0.149327621
30029 0.727299333 -0.607416809 0.219180122 -0.360812157 0.063624591 -0.624601901 -0.557360172 0.565430820 0.372729778 -0.526176572 0.357041359 0.316710204 0.199181736 0.383779258 -0.466107577 -0.328457355 0.169150218 0.223928347 -0.740936577 -0.413397551 -0.224226758 -0.353448153 0.151086345 -0.177690133 0.168754146 0.209846005 -0.192648649 0.555775702 0.164516419 -0.561632693 0.290671229 -0.144115821 0.701446712 -0.184670433 0.004754121 -0.483420670 -0.095931731 0.543891609 -0.919257462 -0.562243998 0.369516283 -0.156962007 -0.437979817 -0.101394869 0.806418657 0.458497226 0.622108400 0.170013234 -0.211665168 0.397264808 -0.602187872 0.082720369 -0.357451946 0.319561720 0.073438890 -0.049172558 0.143176794 0.560366809 0.483078718 -0.750050485
V174 0.283707947 0.641627133 0.809538841 0.084575608 0.369813055 -0.048438869 -0.825932860 -0.038117271 0.755437672 0.630832553 0.166075006 0.112461507 -0.057176441 -0.730299234 0.133748576 -0.866497099 -0.091499098 0.145452037 -0.019805109 -0.336810589 0.799675703 0.220304504 -0.637763560 -0.958028793 -0.244624853 0.552477181 -0.165468797 -0.664963365 0.327088684 0.842691004 0.451717675 -0.555025756 0.230963334 -0.755916357 -0.019787220 -1.098014474 0.543213546 0.118363880 -0.717870593 -0.349917442 -0.025213035 0.011081484 0.497911066 -0.804411232 0.094701625 -0.969325960 0.378879458 -0.044530895 -0.049616575 0.607487679 -0.263939679 0.640048921 -0.117450744 -0.199100479 -0.163564667 -0.862354517 -0.234636202 0.762642384 0.758998692 0.216450408
99674 -0.397251695 -0.005926739 -0.032742035 0.164112717 0.764272869 0.411618859 -0.150903076 0.455224127 0.135193184 0.499279946 -0.104906581 -0.058588620 0.545195639 -0.479585290 0.023636008 0.270661026 -0.720697999 -0.387584180 -0.142631322 -0.429070592 -0.375485331 0.172139212 0.131276384 0.456618696 -0.344503105 -0.287023067 0.124737769 -0.390366435 -0.498452187 0.403594762 0.823916733 -0.008051750 -0.002394703 -0.404235274 0.088987291 -0.236907214 0.416033417 -0.000533627 -0.402877986 -0.298285007 0.539959729 0.130107611 0.044078767 -0.177123189 0.080431633 0.052920830 -0.322358608 0.202491358 -0.826202869 0.114325024 0.315027863 -0.245414838 -0.216429278 -0.413737208 -0.150315940 0.362227380 0.499249488 -0.211872295 0.863762558 0.008183928
4160 0.729399502 -0.245186538 0.542546034 0.092343152 0.458706409 0.490974128 -0.663717687 0.717656434 0.660816729 -0.139137775 -0.051473703 -0.060476057 0.629128814 -0.318275154 -0.419187665 -0.106389485 0.090449378 -0.231207207 -0.185929880 -0.858186007 -0.358812541 -0.060552370 0.110617898 0.471350551 -0.355216503 0.188208655 -0.280102253 -0.201159701 0.202349126 0.190472677 0.086774886 0.370023847 -0.530237436 -0.749917269 0.291719854 -0.225760505 -0.000454353 -0.455523342 0.573853195 -0.161216021 -0.112275012 -0.275695831 0.042265657 -0.332608163 0.257577151 -0.137252897 0.417266190 -0.459399939 -0.189708218 0.507351339 -0.360699773 0.008391496 -0.282646030 -0.181538194 -0.095595509 0.145951167 -0.047307651 0.378808469 0.352566332 -0.156575561
4281 0.376947880 0.870234549 0.611101151 0.509109676 0.255911112 0.548694313 -0.908659935 0.441561401 0.463519424 0.650824845 -0.169814602 -0.549981296 0.405865639 -0.330705792 -0.573913276 -0.217220917 -0.126499310 -0.278354049 -0.415833861 -0.392714024 -0.342944264 -0.047364209 0.549143016 0.896637321 -0.199310407 0.735253572 0.012255338 -0.435631543 -0.119782552 0.810062349 0.607413292 0.314448118 -0.806356430 -0.935380161 0.802593648 -0.563953876 0.219457805 0.119391784 0.212943509 -0.320403725 0.929016888 -0.521826863 -0.127434015 -0.183731869 0.404422104 0.420660526 -0.148809329 -1.095435619 -0.338884681 -0.616805613 -0.983866930 0.401992291 -0.717138171 -0.051963665 0.552296460 0.357813895 -0.042882845 0.036534984 -0.310490966 -0.205519214
